encog,BasicNetwork,java,3.4.0,1,1540684417393
[BASIC]
[BASIC:PARAMS]
[BASIC:NETWORK]
beginTraining=0
connectionLimit=0
contextTargetOffset=0,0,0
contextTargetSize=0,0,0
endTraining=2
hasContext=f
inputCount=10
layerCounts=1,21,11
layerFeedCounts=1,20,10
layerContextCount=0,0,0
layerIndex=0,1,22
output=0.0002454221,0.4311320345,0.4169531542,-0.5629559378,0.151004938,0.4248824259,-0.6838373542,0.3288995544,0.2158804656,-0.1444725895,0.4317465779,-0.6970738718,-0.4480352421,0.5632257887,0.3234230725,0.5696719187,-0.6892277667,0.6456533147,0.0460291841,0.0548845118,0.3356495973,1,-0.000636263,-0.0008777366,0.0003371737,0.0013513325,-0.0016181754,0.0011429102,0.0018105028,-0.0022898786,0.0004914833,-0.0003058676,1
outputCount=1
weightIndex=0,21,241
weights=-0.9165821947,0.6694960164,0.1391571767,0.1417315586,1.0158948437,0.6626160166,0.7446701953,-0.876593412,0.7094085301,0.9108330575,0.5503863574,-0.9202253534,0.5209190574,0.5807921908,-0.3947901247,-0.1584996031,-0.2161647438,0.1198208965,0.0223153269,-0.6593790783,-0.1918172452,0.223985072,0.2387601535,0.8432987286,0.3565951441,-0.5834148227,0.6422834721,-0.6706256876,-1.0358380992,0.0876935638,0.8188581654,0.4582436547,-2.1978181791,-3.00468932,0.044773788,0.1047064815,-1.0710036944,-1.1111701939,0.6951773755,1.3041378242,-0.685298939,-3.8379228384,0.4402335252,4.0826365886,-3.5822564659,22.475724536,-7.9723732389,11.5992069319,-17.5121315627,-4.2445729172,0.9632125783,-29.6245744413,0.7341137059,-0.5710422828,9.1709252644,0.5233535205,-7.9060959439,4.7047063371,-2.1523582785,-10.1460416116,4.3635850255,-10.9491848313,-14.3839261382,-40.4597962447,0.1246059102,6.605911442,1.7155066728,-3.6167387897,0.4265472471,-3.2140871495,-7.8596910659,3.3928275758,-2.1968017024,4.7155837767,18.2526505581,0.4558610583,-8.768295231,-2.9001939605,4.8844666498,-0.1157713157,5.114261086,10.0833602736,-6.2081533083,1.8588914638,-10.9184522172,-25.1730451805,-0.8359873981,-1.169003829,0.2393277149,-0.2490540593,-0.415829461,0.5864628274,0.8504383643,-0.3451043549,-0.0493304126,0.9453635698,-0.0677385371,0.3417095261,-0.6007975489,0.1368408029,-0.1111656074,0.7977491201,0.0802322006,-0.5038683049,-0.6799731024,0.1951174079,-0.1895713911,0.0390245991,0.2205171447,0.0337490105,-0.5036515608,-0.0664915033,0.1134252162,0.2404341056,0.0687308517,0.5372046272,0.2901482042,-0.212753926,-0.2505422154,-0.1460117469,-0.4939148968,0.6787680988,0.6646366858,-0.5183920994,-1.4342592388,-0.4746003572,0.4208297659,-0.7161082671,3.0385650141,-0.6914951941,0.4569142983,6.1492998067,7.6974293592,-0.8108911704,4.0770689672,-5.6779136732,-0.8887819748,2.2381819433,-3.7535572474,-2.8165914799,-0.2179284788,-0.8756549254,3.2898736006,-1.6992632635,-1.8993114076,-1.0721957581,-0.9404045401,-7.3567058476,1.4109799077,0.3494331875,2.699165212,-1.2591114909,-0.4761281705,-5.0854142208,-7.9739193337,2.2088940464,-7.7859475005,6.7256012819,1.3504508483,-5.0035992624,4.3276533815,-4.4432583595,-4.9730793422,0.6660584334,2.3696817031,2.0583901356,-10.3446850555,3.8810502492,-3.989978142,1.7856930955,4.9559842082,4.7832616552,11.4225526998,7.9820852766,0.3273335628,3.5945313681,-3.0177520033,-1.1858911016,-1.1923382082,-1.0687609726,2.4609475475,1.5168601856,-2.5101988955,-1.8518139066,3.5339989977,0.6376410339,-18.8604047604,-0.5268416319,-7.5125655206,-3.0429676373,-5.644639026,18.7421266328,-6.7048229937,-6.1117707914,26.4528389494,2.0457163782,-0.8970868529,14.9083654629,-1.0513122188,-3.9022071476,9.3180874607,-1.8963688354,-16.767359811,6.9151398521,-1.8947524574,-11.8409012772,-7.7712580168,0.76777416,0.0298446314,1.2392226204,0.6335711599,0.4845252091,-0.1060691501,0.0960557813,0.7071508195,0.8689272125,-0.7474772563,-0.1472214531,0.0470504144,-1.0397160698,0.9526087164,0.7437964548,0.753030583,0.1626872862,-0.7608484081,-0.4507544783,0.3614319247,0.2605621404,-0.335042087,0.0563919696,-1.0643927856,2.3109304068,-3.7657459644,-1.0481694828,-0.6220383935,0.0709170818,4.2055364079,4.6152469409,-1.648890659,0.9046580348,0.3561726574
biasActivation=0,1,1
[BASIC:ACTIVATION]
"org.encog.engine.network.activation.ActivationTANH"
"org.encog.engine.network.activation.ActivationTANH"
"org.encog.engine.network.activation.ActivationLinear"
