encog,BasicNetwork,java,3.4.0,1,1540696239569
[BASIC]
[BASIC:PARAMS]
[BASIC:NETWORK]
beginTraining=0
connectionLimit=0
contextTargetOffset=0,0,0
contextTargetSize=0,0,0
endTraining=2
hasContext=f
inputCount=10
layerCounts=1,21,11
layerFeedCounts=1,20,10
layerContextCount=0,0,0
layerIndex=0,1,22
output=0,0,0,0,0,0,0,0,0,0,0,0,0,0,0,0,0,0,0,0,0,1,0,0,0,0,0,0,0,0,0,0,1
outputCount=1
weightIndex=0,21,241
weights=0.1446053147,-0.6988840938,0.8458588409,-0.0006289147,0.1184693408,-0.4761394745,0.8748110312,0.0237619448,0.7588424799,0.6993816491,0.5372223364,0.1151939261,-0.2989569595,0.4014313763,-0.9162888364,-0.0520439975,0.7744929114,-0.6229414997,-0.5833029522,0.0315790955,0.9229120413,0.9511044957,-0.0208405003,0.2252995395,-0.4225000918,-0.3847320979,0.5603118388,0.3304065601,0.1362153129,0.580453292,0.2071345233,0.5333037744,0.8600485382,0.3437554744,-0.857981561,0.9006070599,-0.0418845645,0.0018401502,0.1680696588,-0.3521407061,-0.9168955094,0.6575086386,-0.0279335319,-0.024530026,0.2535937549,0.9151893503,-0.120363439,-0.660127508,-0.7420501258,-0.9963260074,0.2106287592,0.2709719834,-0.581504027,0.1251757741,-0.4052851537,0.0061799952,0.6800491476,-0.5391357932,0.2364268933,0.0614955305,0.1588717895,-0.851366608,-0.693238117,-0.5131470334,-0.5833648965,0.000507229,0.4147934597,0.8572659942,-0.6586539376,-0.5086489527,0.4286611414,-0.3897138845,-0.1144260729,0.0490439688,0.0071650917,-0.5645020309,0.9993233248,0.7601149863,0.4446455615,-0.0961785609,0.2956011868,-0.2706071778,-0.5683485487,0.8933124286,-0.2565169232,-0.6677303387,-0.4742562634,0.1692774483,0.7111461879,-0.9738691537,0.2384964656,-0.1375080407,0.9443615973,0.4426013548,-0.4564027422,0.8090600157,0.1956626472,-0.7125945236,0.5863752904,-0.5206453947,0.2815029802,-0.0962966825,-0.5105185846,0.9507152583,-0.0849890244,-0.9216026296,0.2781922246,-0.4065170054,-0.1271228464,-0.2758908335,0.9507776324,0.2106770725,-0.6763633692,0.3036877043,0.4465821796,-0.868546159,0.6442791348,-0.5216193622,-0.9046699714,0.6953880677,-0.7424587811,0.9610971129,-0.2248013892,0.1866428762,-0.7154788567,0.1779837421,-0.6105014777,-0.8335873457,0.5231244469,-0.0365206337,-0.3701055306,0.5858731211,0.8900091523,0.1939638959,0.3841160091,0.5899192786,0.3372204727,0.4022574885,0.1215676295,-0.0886265129,0.2723994608,-0.8371722503,-0.1524439049,-0.0906534958,-0.9708664143,-0.3657987381,0.8411540456,0.0891973716,-0.3387525572,0.1455472457,0.1070118889,0.7090172562,-0.9810682678,-0.4216913199,0.4911430995,0.2768621359,0.3608861257,-0.6817780032,-0.442592855,0.2182223275,0.6679036379,-0.638087667,-0.2309913194,-0.4501696649,-0.8065313773,0.122086079,0.5543672003,-0.3166930339,-0.6846794767,0.1164634332,0.7949694616,0.5861021878,-0.2613946038,-0.3304325325,0.1851045322,0.1833259454,-0.8505440609,0.7649268399,0.5561944947,0.947897524,0.9264153626,-0.5368008979,-0.732776473,0.1374990734,-0.196900646,-0.3920571253,0.6618034741,0.3656871812,0.4608551198,-0.1817706734,-0.7571784427,0.4246981796,0.3142390846,-0.5027803755,0.4158380946,0.2273395219,-0.2600582464,-0.8316861273,0.2892958142,-0.3220710124,-0.8545635421,0.877628235,-0.2177327607,0.2730764195,-0.7584452556,-0.9373537431,-0.7809547377,0.4716841035,0.193673088,-0.4136555968,0.3219982176,0.9390985001,-0.1023289081,-0.274920624,-0.7263762765,0.5818775008,0.7226749406,0.8143572762,0.1051390998,0.3822374839,-0.9437136049,0.0004506502,0.2886684482,-0.5838938495,-0.2175752118,-0.4822410813,-0.7623975927,-0.0753980911,0.0540634033,-0.7078912362,0.1110613998,-0.4478770186,0.3513033551,0.0176411859,-0.0678217906,-0.2429184201,-0.7271442727,-0.0690321219,0.5775722481,0.3904713,-0.039565371
biasActivation=0,1,1
[BASIC:ACTIVATION]
"org.encog.engine.network.activation.ActivationTANH"
"org.encog.engine.network.activation.ActivationTANH"
"org.encog.engine.network.activation.ActivationLinear"
