encog,BasicNetwork,java,3.3.0,1,1540661949617
[BASIC]
[BASIC:PARAMS]
[BASIC:NETWORK]
beginTraining=0
connectionLimit=0
contextTargetOffset=0,0,0
contextTargetSize=0,0,0
endTraining=2
hasContext=f
inputCount=10
layerCounts=1,21,11
layerFeedCounts=1,20,10
layerContextCount=0,0,0
layerIndex=0,1,22
output=0.0195328023,-0.888656159,-0.4139300731,0.8486094593,0.8176884106,0.8240602651,0.8358793376,0.380906059,0.6848656273,-0.7631486877,0.4792274266,-0.3579100889,0.772417641,0.8267905996,0.1137612487,-0.9999936087,-0.5829320224,-0.9907654838,-0.4249352256,0.8802280514,-0.4772277866,1,-0.0281361703,0.0150600012,-0.0357234035,0.0352812645,-0.0192540259,0.0271467909,0.0259995871,0.0060516086,-0.0042906501,0.02903461,1
outputCount=1
weightIndex=0,21,241
weights=0.8408926044,-0.2364664525,0.7954689687,-0.3985264205,-0.8468552991,0.0807373098,-0.2861736276,0.5870314634,-0.446563694,0.5177051674,-0.5782852414,0.7346662781,-0.2482941621,-0.6832923526,0.1183020613,0.6039456694,-0.2232935562,0.6370811499,0.7795566523,-0.1548606963,-0.6634732705,0.7251664719,-0.5631424759,2.9593566982,1.0993362755,6.0751320227,-3.0115957587,-6.9685655981,-5.3209658611,-4.4384457566,2.434768461,-0.9973124504,-1.5716092524,-1.5232018155,-3.4671002087,-4.2629381881,-1.1064722329,2.5815417571,-5.1412723971,-3.254960617,-8.4183288223,-6.0279836109,-0.2341949169,1.3120031358,-0.442038516,-1.7664964573,0.4071081479,-2.9092454862,4.4051975368,3.4954870181,6.4019533302,5.4320359344,-1.6970793855,0.9846223581,9.2799754222,-1.7146241026,-9.3050802358,-4.0660420057,-4.3422058738,2.4409533355,1.5994302949,-3.5204823528,-4.7360245149,-6.4001713752,1.2431299003,1.3449283118,1.4971640184,-3.6150254917,3.5054403594,-3.9309584558,-2.4451579862,-0.2298370032,-1.1347354412,-0.7054315462,3.9222372446,0.8184424719,-11.4758491638,12.8016376117,-3.3586553876,-3.0053879705,2.9478940353,0.892666876,-12.2468006697,3.7711031445,13.3101485086,5.7205657449,0.896841737,4.7377659475,-8.1005687612,6.7845565168,7.9249852308,2.0228078494,-2.7503659205,3.6230040496,-8.1978798076,-0.0051905683,-5.2516065793,0.8406607984,1.6682293768,1.707060764,2.3328856937,4.541785456,-3.9196131012,-0.7168436081,2.3650249405,-1.6576869436,-1.6996005807,4.3972266208,0.5401184353,-2.6608048133,0.2366892835,5.3722444157,-4.9823647134,1.2947056608,5.9175038162,7.010228213,6.2044148851,-0.835098771,1.4156226802,-1.1146502301,3.4800728426,-0.71146942,1.4915699705,0.3753935075,-1.4841932987,-1.9539591232,2.3040676917,-6.6377180092,-0.3647607238,-9.2497358959,0.9423796479,-2.142466514,1.513546609,3.8261735788,1.6645216248,0.8011600378,-5.5211112245,-2.7150546522,1.3631072915,0.2923640942,-3.0192167818,-0.0630406488,4.4756082171,0.9007666355,1.1451184011,-1.1269639099,5.2812708454,2.4074835548,-2.9329385873,-1.8725573863,-1.1891620753,2.1928463023,1.2744697017,0.4266571017,-3.5164122385,-5.10640541,0.713820616,8.9684151216,8.5387199301,-4.7605945501,8.2990669457,5.3028952612,6.7419379713,0.8766996956,2.9889476004,2.3861662835,3.8429765421,2.1849333979,-1.1752897317,1.4016555561,-0.4428333255,-0.1431901556,4.302902194,0.5645470876,0.1763860552,-31.7136629064,-36.7949915521,15.5391512895,26.8753889838,-4.7267503035,-11.4003270419,-22.0966796894,12.8804401388,24.6656303025,-18.1937474147,-5.7090032986,-0.0058209924,-0.9039967109,6.578510644,1.2902583511,-2.5254361849,2.3102967474,5.5307466429,7.8042485039,1.3754508806,2.9040536693,-0.8447410209,3.0773422302,-12.6647404095,9.6532360931,4.5709383561,6.9582665525,0.9191800979,-2.1248138785,-1.3534226091,-0.6794050641,-1.141605844,-2.0230820372,-2.0522639788,-0.3245677944,2.652156147,1.9225831494,-1.4082564639,-3.4206249172,-3.5196801236,1.4735166967,3.4403271814,-4.6063354168,-0.1827995938,3.8229713199,1.1727827174,-8.9493776306,-3.0985235443,-3.71751462,1.1170008954,2.0030889882,-0.487726904,-3.2490463552,0.0408154376,1.0901450379,-0.8651421479,2.1681018422,7.9651904042,-1.2441330632,-18.2135914165,-1.6145845166,12.4518041453,13.2349008915,4.7641350655,-1.3204650978,-0.8998513888
biasActivation=0,1,1
[BASIC:ACTIVATION]
"org.encog.engine.network.activation.ActivationTANH"
"org.encog.engine.network.activation.ActivationTANH"
"org.encog.engine.network.activation.ActivationLinear"
