encog,BasicNetwork,java,3.4.0,1,1540679913819
[BASIC]
[BASIC:PARAMS]
[BASIC:NETWORK]
beginTraining=0
connectionLimit=0
contextTargetOffset=0,0,0
contextTargetSize=0,0,0
endTraining=2
hasContext=f
inputCount=10
layerCounts=1,21,11
layerFeedCounts=1,20,10
layerContextCount=0,0,0
layerIndex=0,1,22
output=0.0248441702,-0.7993431062,-0.2457880341,-0.1318928848,-0.0520583761,-0.8558362946,0.1434339693,0.494046911,-0.306093532,0.1290427914,0.1657661752,1,-0.1917094135,0.2979994955,0.860547727,-0.4037067762,-0.0198137912,0.8899263854,-0.866317191,-0.3831558815,0.8141836405,1,-0.0281361703,0.0150600012,-0.0357234035,0.0352812645,-0.0192540259,0.0271467909,0.0259995871,0.0060516086,-0.0042906501,0.02903461,1
outputCount=1
weightIndex=0,21,241
weights=-0.6177907038,-0.6304942441,0.6376907892,-0.5071019452,0.5836787461,-0.3444536586,-0.912056181,-1.6788492111,0.9239733677,0.3764262906,0.0137524081,-0.2452046135,0.4646418291,-0.8456267777,0.7735239267,0.2311764978,-0.3375642655,-0.8385509615,0.7929910231,0.6531122503,-0.0708366457,-0.1495094617,-2.4070249477,-0.4360884547,-5.0089703558,-1.019250684,1.7636326175,11.5370875738,2.4676581586,-3.2695819235,-1.1801082227,-1.2657619318,-1.8118329548,-0.2448015566,4.0551879372,-0.1874443459,-0.100014064,-5.1845363055,1.0032011214,1.4463967099,0.7946768483,-2.7658351243,0.0409586335,0.8247596759,3.7795265719,-1.8110909377,-4.0225425613,0.6714087167,0.5768922094,0.6027056884,-0.2903333709,-1.7825418616,3.9126536287,-0.2270550013,-1.0167400082,1.1420943377,-6.3835600246,-4.0449723946,-2.090626901,-1.730883838,-3.7343406429,-2.0078128453,-2.1468450662,-1.8198898489,-0.0236381416,5.1416804575,2.4499104881,6.2443013787,0.3715421553,-0.9818302602,1.4052423839,-4.825375989,4.5161538729,1.878643489,-4.0517050813,-0.7930637816,1.0633377903,-2.1396470271,7.7477982897,4.6991746996,-7.7539225257,1.0265341107,3.592338672,-0.5610042447,-0.069924796,0.0773790084,0.0478438007,-0.8039330947,-1.848716782,1.040206608,4.5029841817,3.5317380861,-4.0388070658,-4.0278061596,0.8218694501,1.2182709563,-0.9412187578,0.734854314,2.150081385,2.5928182649,2.0101564755,-0.3746985594,1.462846907,3.3659118562,-0.5427303138,-0.2150042524,1.1348109689,1.2303296734,-0.2884018859,1.5380414395,-1.4255117298,2.2423040564,1.4644432824,1.0823923377,-3.7059454563,1.9535576279,3.8016060142,2.4378911501,-2.0316547199,0.340040289,4.0610876273,-0.1867289215,-7.7673226482,-6.3235680027,-9.4236194053,-2.8009286814,-3.8243180039,9.7817313115,2.5685787476,-5.8363201621,0.3453191508,-476.9691374357,405.0250359153,-658.3453006524,-262.4287642581,280.538062824,130.5742930228,727.1069529467,854.5514793698,2882.469027639,1948.8853571616,40.2772604094,1.3459730827,-2.9826467363,-8.8750922396,0.3471357,2.1514867582,-2.0669682876,2.4660807949,2.7549884148,1.5092858086,9.5123855346,-0.6935833434,1.8976849885,-0.1968718645,8.9561413319,3.4862583394,-12.2046327272,3.9145846894,-0.0450542148,-4.954440703,-7.7741091685,-4.5689990461,0.3498255437,0.5060161377,4.0655732206,-1.7857443121,0.7477451537,-2.6866217116,2.4937268878,-5.4045094586,-2.0986586047,0.2433528464,4.953743246,1.0492919001,-1.9191523509,-0.2471286697,5.067091422,4.5241784509,6.5249520392,2.3822412691,2.0871161957,-8.2310498286,-1.53426012,2.7277172209,-0.4862232713,-4.1871456618,-1.020194057,-13.8842177192,-0.4942539367,16.3457724587,-6.5565811305,3.2823559369,7.5355142106,11.5913604115,11.1610629941,-0.5133685713,-5.1996626582,2.187249347,-0.9119004747,-2.4415077153,-7.7677606679,-0.056096087,-2.6501047781,-11.4776069444,-4.9603422556,0.2719046787,1.2570406546,-0.3843270598,-3.7457382751,1.5710992746,3.3767539021,7.493529307,-2.1894014845,0.8651232505,0.4752765654,0.7232392501,-3.0889940012,-1.0644023309,-0.3082439086,0.7020054327,-0.9592857314,0.3102361173,1.9817774653,0.9260610045,-6.9582207183,1.242024446,2.7899966826,-0.0168546872,-0.269340326,-5.2169245271,0.3316622076,-0.8810044654,1.0471278343,0.5522004959,-0.3030095958,4.3122439686,-9.5402343532,-2.7171347831,3.9903982955,0.7560775021
biasActivation=0,1,1
[BASIC:ACTIVATION]
"org.encog.engine.network.activation.ActivationTANH"
"org.encog.engine.network.activation.ActivationTANH"
"org.encog.engine.network.activation.ActivationLinear"
