encog,BasicNetwork,java,3.4.0,1,1540696403230
[BASIC]
[BASIC:PARAMS]
[BASIC:NETWORK]
beginTraining=0
connectionLimit=0
contextTargetOffset=0,0,0
contextTargetSize=0,0,0
endTraining=2
hasContext=f
inputCount=10
layerCounts=1,21,11
layerFeedCounts=1,20,10
layerContextCount=0,0,0
layerIndex=0,1,22
output=0.0059128294,0.0077139905,-0.5542945153,-0.584682418,-0.7433298468,0.9082828688,0.8653451948,0.443780327,0.0654121831,0.5723375761,1,0.8376187709,-0.8676151985,0.4547719255,-0.6872894035,-0.9759274314,-0.4677711963,0.9742776613,0.1592356614,-0.5985369567,0.3882276098,1,0.0150600012,-0.0357234035,0.0352812645,-0.0192540259,0.0271467909,0.0259995871,0.0060516086,-0.0042906501,0.02903461,0.0253986202,1
outputCount=1
weightIndex=0,21,241
weights=-0.4979385066,0.8583011353,0.1386741278,0.4013864211,0.0326764431,0.3980882969,0.8387631652,0.5608632265,-0.0936843886,-0.0668914134,-0.6559763177,-0.7838449338,0.9749572249,-0.838036028,0.3214418521,-0.8081574438,-0.1868159616,-0.7621227209,0.797551953,-0.3902981089,-0.0796646405,5.5037601728,9.7444314554,-8.2773085474,0.4462239267,6.2519053605,-5.6441603828,-5.0612392731,-3.5142037825,2.7071908421,5.0151336438,0.360154672,0.5583867491,-4.6571436093,2.295853238,4.3721121025,5.4741318229,-0.7070990312,2.0051647558,-3.5855085933,-4.2477599167,4.9862730724,-0.957209363,-1.3586724282,4.5302509502,3.7052201969,-1.0084593532,-10.7896185177,-3.7917049637,-6.0165341024,-5.6613241078,-5.80507959,6.7348579609,-0.2362947194,0.7757526695,-0.030081141,-3.6210918899,-2.6409980723,-1.0729533908,-4.3498820992,-2.0406737283,-9.9972173983,2.3911728404,-4.3122977158,-0.7419539926,34.5554355919,-7.2312414378,-30.2353789323,30.5831464987,13.4841512362,-16.7324219148,-45.5643269189,-29.4890850219,-6.8516744846,-1.7038268406,2.8548918987,-0.9359151613,-10.6923890071,-1.9894781206,5.3373333024,12.9924555965,-3.4435701359,0.7468416546,-5.9999785061,2.4161699872,-0.4107764417,0.7661713901,-1.8115951372,-0.2815119541,2.0081859439,-0.1346767213,-0.2538250677,4.4992876822,1.2508321661,5.1948800377,-2.8348704608,0.4947432844,0.3950844265,4.240431339,8.8341196013,-6.0761636362,0.3237587579,5.6059167684,-4.3647441962,-4.3032730744,-5.839479742,1.9742178538,5.9679411211,0.2912253728,-7.2174615098,-17.4225660069,16.5854500233,1.6696395868,-16.9216541896,13.51639061,8.8615005633,-14.5986438152,5.3182322113,6.019998123,-0.731342889,-18.3127855149,20.2103230862,-22.0056677511,33.2624471977,44.8858650152,30.5483955899,74.0604903219,22.1105293905,107.9181154016,14.7841143715,11.1173722589,3.5401512249,-1.2053404125,0.8761228957,3.7055651696,8.1309508933,-0.3043043739,5.01807208,2.4020903563,1.0534131822,5.691450355,0.7491835537,-0.2056026509,2.8029731098,-0.0992441343,-4.0463957418,-3.4500950898,-2.2299763715,-4.8892975187,4.3646169678,1.5137469381,-7.4672318655,-0.948873244,0.9908852558,3.6939504896,3.0608434301,1.53334723,1.8594767948,0.0534092388,0.4779115411,1.6237031544,0.1126527629,-1.2407023862,0.5097190052,-1.5572467811,-1.2131120595,3.7872710373,0.8137250691,-0.0713743736,-0.4915393449,-1.1841021804,-2.8529027615,-6.2907655515,-0.6060031593,-0.7729529246,2.1580101516,7.3187136466,1.7609032439,-1.4639765217,2.3503979984,-8.2668878815,-5.8515202714,8.5664288413,-2.2490783644,-8.4467164305,-1.5620920821,2.9723508479,-4.0787397144,3.3715669148,4.2624813944,7.4207894261,-0.5517712154,3.4475960316,3.7820802385,-0.436591154,5.0409535035,-1.0416644413,-0.4933449586,-19.897188492,-2.7281441828,11.9022816757,18.9315002404,-7.0797876712,-0.5135676292,-7.7490411485,8.4383604874,1.467521973,1.1500767461,-1.3166544659,2.1255941679,-4.4402274143,-0.212257417,-0.8325260197,-0.0572357238,-1.0869825823,-3.710546929,-0.899793914,0.994591307,0.4245444467,2.9551231492,-0.0177138939,-1.9322140336,-0.4063731053,-1.3207717468,-0.6963842785,-0.0011308888,0.7826236991,2.4207768274,1.6915157351,-0.7315778758,2.3068109956,5.3836373185,6.323474081,1.2948418007,0.318731643,3.3770056235,-0.3306595607,-1.0610598337,-1.6503223565,0.1060554123,0.3153413308
biasActivation=0,1,1
[BASIC:ACTIVATION]
"org.encog.engine.network.activation.ActivationTANH"
"org.encog.engine.network.activation.ActivationTANH"
"org.encog.engine.network.activation.ActivationLinear"
