encog,BasicNetwork,java,3.4.0,1,1540689711275
[BASIC]
[BASIC:PARAMS]
[BASIC:NETWORK]
beginTraining=0
connectionLimit=0
contextTargetOffset=0,0,0,0
contextTargetSize=0,0,0,0
endTraining=3
hasContext=f
inputCount=32
layerCounts=16,65,129,33
layerFeedCounts=16,64,128,32
layerContextCount=0,0,0,0
layerIndex=0,16,81,210
output=0.0001105464,0.0000301786,0.0000724896,0.0000716747,-0.0000780324,0.0000421146,-0.0000283277,-0.0000151123,0.0000631635,0.0000360644,-0.0000403167,0.0000628012,0.0000927086,0.0000594378,-0.0000248326,0.0000474701,-0.9999928695,-1,-0.9996563236,-1,-1,0.9996647665,0.9999893627,-0.9968053398,-0.9996200248,-1,0.999999983,0.9996585511,0.99978786,0.9963728186,-1,-1,0.7614309198,1,0.9924620651,0.9987408779,1,1,1,0.9998803284,-0.5612848929,-0.8783093937,-0.9999403772,-0.9754763995,1,0.9997404125,0.9798794022,-0.9994278127,0.3805251939,-0.7470243451,-0.9999980147,1,0.9999999397,-1,-1,0.7602679717,-0.9942281133,0.9999937752,0.8324467372,0.9726230445,-0.9999502383,-1,0.9999534669,0.99196563,0.9999998733,0.9998693246,-0.9950443057,0.999999998,1,1,0.9619148553,0.9968238947,-0.9999703889,-0.9999995151,-0.998133938,0.2466022761,0.7920324182,-0.9986958516,-0.9997213047,0.9999957261,1,-0.2410035969,0.6748287354,0.7328888405,-0.3518494065,0.7710462376,-0.2856369096,-0.0748630067,0.0788451165,0.1406153939,-0.0064237851,0.5025417924,0.5398092553,-0.3975166582,0.5298528199,-0.0634236524,0.613214098,-0.330498059,0.4587610499,-0.5311118518,-0.7615310624,0.3588430268,-0.4211795656,0.0823248691,-0.4043193328,-0.6871959427,0.9160819422,0.0770523631,-0.3067061524,-0.2055990021,0.7350510599,-0.5055473568,0.0699631398,0.5294012672,-0.5690722957,-0.6635321007,-0.1131593885,-0.0327915585,-0.9580746184,0.1685373581,-0.0125913492,-0.4214090462,0.6252451423,-0.46186787,-0.7425097102,0.0520104184,0.7384000468,0.5167361052,0.3231794606,-0.586756248,-0.2961744092,0.7841738616,-0.4729832421,-0.7081728666,0.2578478831,-0.8093367224,-0.5409639738,0.2325517535,0.6139273226,-0.8026057592,-0.307038832,-0.1898288068,0.3455321267,0.0944016625,0.3476891464,0.165015938,-0.0352228006,-0.5392774571,-0.5142707882,0.6189358784,-0.2929161608,0.6729645116,-0.0485501902,0.4682428602,0.2999643887,-0.0379127322,-0.6651028052,-0.699547711,-0.4652209463,0.7070214228,0.0632391029,-0.3605294648,-0.3212744312,0.6825548601,-0.5039509467,0.588202804,-0.2475825711,0.4600043822,0.6660903861,0.2810951244,0.8459229421,0.0112617157,-0.1008497906,-0.3407147569,0.1103963169,-0.1936321757,-0.1761788218,-0.6192324217,0.7806608431,0.2465096479,0.5809051811,0.5482315657,-0.6459501401,0.7787780574,0.0150047189,0.6570091698,-0.496098081,-0.5006851373,-0.7098067433,-0.2531763186,0.7557169244,0.5396408317,-0.4112797188,-0.0384299205,-0.4286366845,-0.2015678495,-0.5385894406,-0.2506856058,0.7966752484,-0.2576895896,0.7015025011,-0.1981868202,-0.4618452659,-0.6144757784,0.0269250231,-0.688335431,0.1456257254,0.1729012381,0.4314595649,1,-0.0000896739,-0.0000015462,0.0000371098,-0.0000046386,-0.0000061848,-0.0000773101,0.0000092779,-0.0000371114,-0.0000201027,-0.0000788662,0.0000742328,0.0000649489,0.0003030753,0.0000108208,-0.0000077291,-0.0000200958,0.0000757472,0.000006183,-0.0000108201,0.0000015458,-0.0000649214,0.0000154585,0.000114391,0.0000587346,-0.0000463667,0.0000262757,0.0000216382,-0.0002086499,0.0000942985,-0.0000680122,-0.0000371001,-0.0000185507,1
outputCount=16
weightIndex=0,1040,9296,13520
weights=##0
##double#13520
   -0.1336383341,-0.5828751659,0.3074324336,-0.7226358254,-0.1644878537,-0.6070936623,-0.4340433426,-0.5394358108,-0.85823373,-0.7085747726,-0.208563825,-0.141095985,-0.5573628199,0.6449794624,-0.1643777741,0.3701632363,-0.6692193486,-0.9529120535,-0.6619867975,-0.2127874887,-0.1890712091,0.0466067016,0.7113510918,0.5366237124,0.1110668799,-0.2587872983,-0.2815641576,-0.7903702409,0.284092993,-0.6197305448,0.0483714359,-0.9497025974,0.1190907132,-0.6767220868,-0.8806907304,-0.4486915464,0.6898516091,0.5868811437,0.0550184269,0.5175856209,0.7452718042,-0.1802932709,1.0014618512,-0.7568346591,0.5493595378,0.1975522329,-0.0536001654,0.4141769515,-0.547056411,0.642851289,-0.1754983936,-0.0739653282,0.8817463587,-0.4202035725,-0.3606459766,0.3195562304,0.8974370458,-0.3943194043,-0.4033625652,-0.8485441662,-1.4456464367,1.1090114459,0.6951666396,-0.4815752665,0.3568576195,0.5456614448,0.3610662351,0.3385249401,0.1003971567,-0.4260403884,0.2786345131,0.7431569115,-0.4127852984,-0.2811544539,-0.8604359531,-0.5412077535,-0.4308772611,0.4477509556,0.3084381909,0.5510549764,0.6115609254,0.6552310532,-0.3950486752,-0.3687386852,0.6113311866,0.4410814459,-0.0418649333,-0.0504456795,-0.5715608115,-0.0575536265,0.0298113378,0.2577637362,0.7600057563,-0.8955395776,0.5565380903,-0.477594381,0.4674709829,0.4298196867,-0.677947112,-0.2122266216,0.4827996789,-0.7298787408,0.8493437637,0.024664918,0.3637255968,-0.4598941835,0.8787477353,-0.7150971919,0.4304697745,-0.4964212806,1.0947389781,0.6345349315,0.6469936719,-0.3080905077,-0.0106901343,0.6270803878,0.3188852059,0.1926497309,-0.0372102401,-0.4440829282,-0.7317258983,-0.9017192918,-0.3631038023,-0.4223433778,-0.7619653076,-0.2548460348,0.7182033515,-0.4928869808,0.2213178313,0.32262614,-0.6989581256,0.2655167473,-0.1910104049,-0.7660220376,0.4080882563,0.6073619692,0.4193624172,0.9333942949,0.2831594242,-0.5698932978,0.1943065449,0.287039784,0.7606578437,-0.9756679997,0.620584641,0.7731998066,-0.3875873652,0.5181502011,-0.7425462114,-0.5219506473,0.6574609433,-0.1703142971,0.1893053674,0.4375471234,0.2215992173,0.0699176478,0.6296593006,-0.9257337304,-0.5393272114,0.7861747357,-1.2424392646,0.4870517021,-0.5311342113,0.2945631848,0.1641977996,-0.5073476844,-0.0833639516,-0.3828526002,-0.8270065247,0.1098976993,-0.2310679616,0.0036676288,0.1023510105,-0.2615732427,0.5573398553,0.3660970634,-0.4831072851,-0.9497517332,-0.8482835607,-0.1940499989,0.8463529519,0.3860819362,0.4317022815,-0.0840406497,0.081911042,1.4287561594,-0.361147267,-0.1307456521,-0.7578477497,-0.3901036059,-0.1339487541,-0.5944965741,-0.8741650218,-0.4332900117,0.7856106808,-0.5714934204,0.2730028693,0.2101485807,0.3919736254,0.8301816429,0.0753061008,0.031046933,0.1769497339,-0.100702399,0.514258867,0.5927827749,-0.9652775061,0.8589066569,0.7595505308,-0.3370020573,0.6954905771,-0.4248710518,0.2287819425,-0.6359692173,0.8868904691,-0.1289381464,0.6332156779,0.798268648,0.9385517195,0.7600062983,0.9992306891,-0.6158969614,0.9977073663,0.7643104017,-0.2266019851,-0.3849467841,0.2125333913,-1.1360176443,-0.1873673029,-0.4361548298,0.7126426763,-0.1924431022,-0.6457284449,-0.792710314,-0.2757969464,1.0423995439,-0.3026731484,-0.2280646875,-0.6296436837,-0.0947021998,-0.7595254317,0.1758021035,0.41978808,0.6963993611,-0.610980158,-0.1972165285,0.3555022183,-0.2539554581,0.1554873622,-0.2854318794,-0.4253298552,0.9252027951,0.3522915754,-0.7834053094,0.2899537689,-0.5603590306,-0.455865857,0.5909560688,-0.3033004272,0.3136977248,0.2430073589,-0.5997075462,-0.7255634953,0.2562679594,-0.0095931983,0.5547981058,-0.1761817656,0.12921962,0.1484079839,0.2829334997,0.3629065436,0.4615896972,1.0840940304,0.0297567461,-0.1480540914,0.3171377726,0.6986825037,0.7665904547,0.16074767,-0.9756289307,0.3747662322,0.5109879694,-0.1583334991,-0.4399595664,-0.9562107009,0.4661932322,0.4893000631,-0.700065028,0.2047115306,0.5644575644,0.963707341,0.7778446564,0.7432620488,0.8530022342,1.2398933334,0.040042441,0.8198528429,0.4149798732,-0.4157722402,0.1954649607,-0.4386898661,-0.7252820289,0.8928211993,-0.6478363358,0.3239838549,0.8704694768,-0.1423076151,-0.9163804872,0.5856834947,-0.770902051,-0.2205952127,-1.0026454606,-0.3406961447,-0.5983938318,-0.4128637832,0.700955483,-0.2244835878,0.8509319462,-0.1251764066,0.0678157335,-0.0359998483,-0.808927836,-0.3779211515,-0.0931409229,-0.4173299218,-0.7076385159,-0.9698395527,-0.7290101341,-0.276868097,-0.7772963456,-0.983290364,0.8273903056,-0.005376075,-0.1396169891,0.8291692076,-0.7337661168,0.4083181138,-0.3235435762,-0.121735682,-0.2749692928,-0.2408379814,0.115278566,-0.0337499276,0.4296724314,0.5195057828,-0.8540956996,0.0308395154,-0.5643571904,-0.8282752628,0.1070986006,0.3625560383,0.2914501749,-0.155194857,-0.8399782912,0.7811853118,-0.7747682639,-0.3788427657,0.3790085903,-0.5177719297,0.9686934054,0.8384633577,-0.5641436007,0.8082152468,-0.2386809689,0.3102179701,0.6021306841,0.1299029353,-0.7933993099,-0.2721509726,-0.3410478712,-0.9822197555,0.8257866771,1.0363359447,-0.3485195921,0.5409276297,0.292796968,-0.0297008137,-0.325389435,-0.4601106358,-0.6012666006,0.5017282688,-0.5125094448,-0.7356162627,0.2769753144,-0.6082127254,-0.3463304555,1.0423821585,0.2101610717,0.3079065607,-0.0891042575,0.1327652581,-0.7581684393,0.7146613616,-0.3293855117,0.6286052669,-0.8822064259,0.9413019839,-0.1758229489,-0.6041805802,0.451810178,-0.6751096468,-0.2321192787,0.4647060818,0.3748089073,-0.2095952683,0.6774967193,-0.289874233,0.1224348447,0.6086877429,-0.3693899495,-0.2968086171,-0.13949683,0.7200394827,0.9069056932,-0.5982980888,0.2438023985,0.146542083,0.0417711084,-0.4852925338,0.5442343686,0.4762613917,-0.7488448801,0.6533237925,0.2482276824,-0.3140869447,0.0158525303,0.9509953126,0.1925981975,-0.0052941474,-0.078687838,0.9690804318,0.3200231704,-0.1889678346,-0.9463599273,0.2096344288,-0.1643201619,-0.6294437845,0.6110176409,-0.4847951311,0.8318648443,0.8443751403,0.4204366922,-1.0820257943,-0.2498481991,0.6006860656,-0.4508044226,-0.8909381682,0.2576847889,-0.3121051803,-0.541683528,-0.74785103,0.4445759908,-0.2287588659,-0.2619738987,0.2302048686,0.0802575566,-0.6714864901,0.9266992016,0.1897784033,-0.9352870155,-0.5630499518,0.2348199092,-0.7212678296,-0.8791812556,0.67636919,0.8009053895,1.0081637595,0.1105607579,-0.693820048,-0.5569794263,0.7529221941,-0.1458738205,-0.0427189294,0.4769697986,0.4459444339,0.6577433828,-0.9403113554,0.9224961099,0.6752833855,0.4591759578,-0.280024627,-0.05912512,0.8865697021,-0.2410678664,-0.0682217933,-0.30766483,0.7638400088,-0.4648067137,-0.1987617578,-0.1999611449,0.4542040355,0.5626516638,-0.727854466,-0.216693225,0.261067222,-0.5473882598,0.6319412919,-0.7334314136,-1.0546874807,-0.2306889887,-0.0739857547,-0.21290141,-0.7778324587,0.3131069525,-0.4127332807,0.8556281857,0.0336341515,-0.8106940768,0.1868416315,0.1183738046,-0.4282288631,-0.2928638527,0.6731326476,0.6824984177,0.6655521977,-0.2822625465,-0.599537614,0.1003060132,-0.4961999958,-0.1428616068,-0.3941504732,-0.2971064381,0.1126491219,0.1158439016,-0.3557456257,-0.7821835577,-0.7345969641,0.7603724529,0.6183033116,-0.532819655,-0.4002483252,0.2646384772,0.2863838886,0.6175023341,-0.8211228589,-0.9111581587,-1.1589431819,0.4241994788,0.160483303,-0.3030723199,-0.5262901599,-0.5383088047,-0.262496057,-0.6662999004,0.8454055197,0.658004474,0.6094295224,-0.2891180386,-0.5490337814,-0.2637050544,0.5599137221,1.0833137111,0.2036436395,-0.2056534312,0.3223718916,0.2726075648,-0.2900933726,0.4060517878,-0.2217962665,0.5641655602,0.454449576,-0.8667697798,0.4669328199,0.3519305629,-0.1178540788,0.6930923916,0.2243379985,0.3919262722,-0.5689286418,-0.6735830025,-0.2882784211,0.173151384,0.8910831335,0.4924555064,0.1808671376,0.4378563811,-0.2198508953,-0.6390205387,-0.6333065114,-0.3730529113,0.8478076439,0.0486976977,-0.6118739062,0.4382909775,0.4949780635,-0.3885375164,-0.1437204886,0.820632759,0.0646661864,0.0569028843,0.0800522903,-0.103402783,-0.5047647661,-0.0785300671,0.4341524965,0.422229034,0.400933513,-0.9503431963,0.9051145393,-1.0009866583,0.5568906563,-0.61139387,0.1531003862,-0.1275582542,0.1521311775,-0.0033801817,-0.3685607718,-0.8745249217,0.7363888089,0.2785118596,0.5060052586,0.6320000355,-0.5739195847,-0.0721260031,-0.8998380173,0.3672077492,0.8150821312,0.7278875992,-1.0801206389,0.4407555445,-0.7742719405,0.423542456,0.3784737324,0.3106251503,0.2279033931,0.3645276502,0.5125382632,0.2528211565,0.4773749178,-0.5751817886,0.8474770365,0.8052957523,-0.5436560743,-0.23883485,0.5025366977,0.6693032625,-0.4489132832,0.1579849161,0.2126967468,-0.618306237,0.4118877873,-0.489415456,-0.5427893777,0.3972300752,0.3225556934,-0.6030195028,-0.3687911104,-0.8164773933,-0.3382512895,0.9491718525,0.5642181109,-0.4394059945,0.3393229951,-0.5764693106,0.8859252035,-0.4626882746,-0.9773199035,0.339423271,0.1206731508,0.5522319938,-0.0000002429,0.4471936019,0.4379602184,-0.1243218481,0.6120541877,-0.4827877496,0.6126767761,0.8843142588,-0.0448911298,-0.0158951415,0.517152062,0.1648066907,0.2518980464,0.4489232871,-0.4817691323,0.2628640744,-0.3074453478,-0.5665210777,0.3946298732,-0.3497428807,-0.4811133168,1.06438306,-0.2549224395,-0.1651740844,-1.0848184159,-0.51477288,0.2869894025,0.5204977784,0.5798083157,-0.1715112057,-0.2938518346,-0.0154504915,0.442963671,-0.8695061839,0.3552575154,-0.263085525,0.3775171703,0.0323081427,-0.3877061585,0.1766193931,-0.1872357547,-0.8117209147,0.7293093262,0.5133815218,0.0092199245,-0.4711755643,-0.888405406,0.3101893152,-0.0619477502,-0.0654314559,0.3625557198,-0.279837498,0.7481102955,0.3625488468,-0.0101590822,-0.4687082672,0.3928159242,0.0211104416,-0.1137463703,0.6216795724,-0.8440687133,0.4289162647,0.6649417469,-0.1073130311,-0.8588384446,-0.5665640973,-0.8098871506,0.5865272306,-0.2268722762,-0.8976034407,-0.8607129226,0.5144901583,0.4845813128,-0.1680385676,-0.9379748603,0.0712301551,-0.0353478042,0.2908723985,0.4519110213,0.7818169153,-0.713526627,-0.4405946363,-0.1737317778,0.1461582835,-0.5373945213,0.6887386471,0.1182481442,-0.2222513563,0.8985523419,-0.1417058276,-0.227200891,0.4768120634,-0.7844501875,-0.1708263573,0.3211526678,0.3553224893,-0.1182076918,0.5441113067,0.222001009,0.2862864952,-0.5192774889,-0.9883793107,0.3789130212,0.6091976654,-0.9586638982,0.1687490182,-0.7135906903,0.364825125,0.5377975276,-0.017867095,-0.9424439855,0.3110831549,-0.6604310964,-0.3223705894,-0.5038139225,-0.1984411512,0.5262330143,0.4961418945,-0.5166081076,0.087832996,1.0093364916,0.1163859264,0.035638825,-0.8041631084,0.9791746409,-0.3286767633,-0.1193870592,-0.8352686342,-0.1132471977,-0.7585243984,0.1797542464,-0.2734205942,-0.2934085658,0.7784610231,0.7315936726,0.2178871631,-0.5710851295,-0.0568201755,-0.7785539855,-0.7933933524,0.3471509563,-0.4929575882,0.7260368989,-0.1330012516,0.7623805281,-0.7667062285,0.0472418047,-0.2828103714,-0.3595472475,-0.1278740524,-0.3114615148,-0.5084171152,-0.3096960077,-0.7427956783,0.4153167111,0.1165177536,0.0997390737,-0.0853854938,-0.0609260174,0.4993618801,-0.5569862773,0.1002311987,0.2986106593,-0.3152727126,-0.095671058,0.1508754333,0.452734754,0.1416754249,0.6938260354,-0.2210915041,0.855636191,0.1458937042,0.8412115243,0.0311614128,0.1645705735,0.0726449269,0.1400632213,-0.1511354368,0.0720685263,-0.2803473686,-0.0010004874,-0.157825181,-0.1121077833,-1.106525608,0.2599953564,0.8687820579,-1.2646467786,0.6077880628,0.284908376,0.1874160033,-0.009066431,-0.203164047,-0.2879751637,0.0646348935,-0.7441353254,1.3262924465,0.2017850748,-0.9811186358,0.5361776876,0.2037695151,-0.63645257,0.2876003382,-0.7979853438,-0.1922699836,-0.811892061,-0.4137091277,1.0132242421,0.5519314028,-0.2907049975,0.0502265411,0.2399530641,-0.1644713105,-0.5287256313,-0.3725260111,-0.5305111422,-0.2209460015,0.8595217867,-0.5999541737,0.5413566688,0.0269211588,0.7301446224,0.4667112788,-0.1424750391,-0.1890884268,-0.3535749817,0.5195689478,-0.1813434456,0.5266707245,-0.1023749659,0.180595723,0.4562886486,-0.0528496189,1.2162765976,0.4381348972,-0.378276028,0.2961565544,0.7976982577,-0.4284083469,-0.0422458654,1.1211271874,0.292767483,0.678079653,-0.2279675867,0.3914315002,-0.3327181739,0.5566731507,0.5184488868,0.7938541775,0.6394101961,-0.3935093386,-0.6084171851,1.0219089195,1.3786898047,-0.047296924,-0.7867686017,-0.0450920875,-0.2845593118,0.5499224436,0.2690525741,0.2545255615,-0.6633677112,0.3012173796,-0.3419034334,-0.1050419725,-0.8160301572,-0.8381714287,-0.1756002624,0.2192138099,0.6216549727,-0.619303505,0.4270795193,0.1714241132,-0.5792003793,-0.8969483323,-0.3615410765,0.0601017385,0.2875479124,0.0443237019,0.6938348661,0.6816861047,0.1413928667,0.5961306283,-0.0027005657,0.1960076001,0.9335457942,0.017223402,1.0813513699,-0.4611797593,-0.9020875191,-0.4577958528,-0.4122135053,0.018514437,0.0893460951,0.6873676787,0.7465448691,-0.9059108504,-0.4005569326,-0.7874865095,-0.4374693492,-0.8561515843,0.5804627924,0.2938432052,0.4118831932,-0.2104258125,0.1222087538,0.2949582171,-0.0887324989,0.0142657229,-0.674282058,-0.4455261334,0.1831686696,-0.0698065057,-0.2661899703,-0.0987131641,0.3321762606,0.240939874,-0.0214823634,-0.2102431489,0.6754759207,-0.6737031873,0.1198477456,-0.5030424242,-0.1353975323,-0.4015827972,0.336312746,0.5820470369,0.8765383036,-0.2470472943,-0.718321152,0.5825868829,0.644458044,0.2614306489,0.339136007,0.4125381576,0.196108208,-0.7025315957,-0.4633132903,-0.7026124657,-0.0436440819,-0.1242345395,-1.0761688163,0.182300248,-0.7200396015,-0.8513818372,-0.331773803,-0.1463301278,0.6620834269,0.4581494651,-1.3133051674,0.663169081,-0.1178387574,-0.129246822,0.6717888169,-0.4678029397,0.1780818834,-1.1902073107,-0.4104644598,-0.2344285647,-0.3467572971,-1.027169249,-0.0713667669,-0.5528919922,1.0389371617,1.1853679636,-0.7719323246,-0.7342193194,-0.3775018344,-0.1859393822,-0.5416497066,-0.3626736888,-0.289443593,-0.0834857366,1.066985957,1.1035313061,-0.4742098775,0.0918147642,0.4736103546,-1.1458470003,1.3180522333,0.8912012752,0.3487169471,-0.856089768,-0.8325329585,0.4440877463,-0.7765403263,0.6977847507,-0.8188958555,-0.3291279527,-0.4479030744,0.4068170062,-0.3554009375,-0.6111922009,0.9225930778,-0.950059578,0.6906892595,-0.8962815441,-0.7021880528,0.5778100539,0.2095353571,-0.1895622108,0.2808146877,0.7783252985,0.0053594021,-0.0471894962,-0.5629775951,-1.0623767288,-0.9551045648,-0.6323570018,-0.0275005609,-0.6155261304,-0.7628652622,-0.792266894,0.2111163123,0.6194595412,-0.8092952053,-0.1405069361,0.3030868818,0.495512436,-0.8926817534,0.3710935799,-0.7232132977,-1.1082611551,-0.2733785375,0.5917247506,0.4367337375,0.3810521233,0.6986380754,0.4241043937,0.0022898947,-0.3535271482,-1.0678913703,-0.5218529913,-0.8043689539,0.7728315987,-0.6292602292,0.7077689541,-0.713683016,-0.8307820553,1.013407298,-0.6512858405,0.1195144627,0.3756706804,0.8549409989,-0.8284833744,-0.3764887023,0.8468245071,-0.2018771859,-0.4722277011,0.1205038547,-0.2523597774,0.123991969,-0.7968944479,-0.148492889,0.5499263548,0.2502068442,0.2708240797,-0.057671657,-0.329817206,-0.0935680254,0.6271548703,0.7451342569,0.0566216586,-0.8816957075,1.0056154315,-0.9978536617,0.8084414585,-0.809845564,0.6837971771,0.4347736494,0.5924951032,0.5125922712,-0.8651475102,-0.2211417824,-0.9407931665,-0.3059110737,0.9629103265,-0.7554748315,0.4053199084,-0.6520142729,0.1832147547,-0.8688309696,0.0009562041,0.0243312014,0.1732913803,-0.2681034043,0.10341444,-0.518469416,-0.8104780702,0.7221584776,0.2244500006,-0.2458811729,1.0130799495,-0.6002684984,0.0570894069,0.7887448071,-0.7610066086,0.7586968824,-0.5699799752,0.1480597829,0.4588760198,-0.5867389002,0.1484178659,-0.2066688436,-0.2351020547,0.1398010527,-0.9945826978,-0.2766797441,-0.6860023939,0.5512651638,0.1363049051,-1.1458783679,0.3188818932,-0.4682339232,-1.1492220941,-0.550899124,1.0526561234,-0.2076198998,-1.2901997357,0.6992863183,-0.6873097287,-0.570139106,0.4391411244,-0.5406525378,-0.5442089813,-0.1032099014,0.9412392943,-0.6360971947,1.126191848,1.1630750199,-0.2604649355,0.0580986902,-0.5759774354,0.0504526935,-0.6256300189,0.6323773727,-0.4279740116,0.3190342032,0.8670551747,-0.3542701321,-0.6165161138,-0.2404844641,0.1995023986,1.2285370803,-0.3336866818,-0.4021487321,0.0737307041,1.1916571398,-0.8382704776,-0.2497885437,-0.0115946623,-0.4330122008,0.82757355,-0.2104954065,-1.1441933752,0.2964773906,0.2692521269,0.4682710355,-0.0391086885,-0.2417211917,-0.9350587878,-0.0689235201,0.1438869214,0.150231157,0.723442058,0.7010864631,0.4106791732,-0.9612635892,1.0081423176,0.0610374573,-0.0655468379,-1.0275448378,-0.3841079921,-0.8787724669,-1.0505012179,0.7164178065,1.2618130644,-0.5932823935,0.3509437252,-0.5537495738,-0.4627294026,0.0090510834,-0.2945585174,-0.2913094414,1.2512417489,-0.1483350509,-0.6282449479,-0.3891476268,-0.2472777321,0.3598735941,1.113518919,1.1967669799,-0.277377661,0.5219549235,-0.4087754479,-0.608956124,-1.0167383481,-1.2509422232,-0.9213742312,-0.3258026878,0.3748147742,-0.1105451395,0.3706966812,-0.98334401,0.844976243,1.3281116425,1.165645845,-0.6712159131,0.1798120524,-0.5345596634,0.176570225,0.9751340099,-0.8115498678,0.8197789122,-0.2352902712,-0.6258479529,1.2529730609,-0.5286926599,0.7376230048,-0.2705450502,-0.0693454917,0.3030995232,0.5220439495,0.760423941,-0.05259618,-0.6219032785,1.2913708654,-0.9438761966,0.6235244993,-0.4810544884,0.6896986595,-0.2144825784,0.6130764839,-0.1844008447,-0.3791034378,0.2348161496,-1.1424606151,-0.5577183641,-0.5989010523,-0.2131474086,-0.5498237966,0.2008807817,-0.634495558,-0.8950731302,0.8984272265,-0.6076992734,-0.3824645117,0.8011463632,0.1543952797,0.7780805625,0.5109944065,0.2376461273,-0.066765105,-0.1383161713,0.6095450889,0.4938328642,-0.8291211262,-0.0598960731,-0.5289364667,0.1377711734,-0.4361372329,-0.4086920165,0.1229197037,0.4938596445,-0.3996333644,-0.6604231935,-0.5166526935,0.2847229486,-0.9286883088,0.8998839022,-0.2114485118,-0.6576124116,0.8017609842,0.6610464609,0.8465058834,-0.2267692325,-0.4517637992,0.2122344184,-0.0044340292,-0.2470036465,-0.6326583274,-0.753050163,-0.3067973448,1.1399392839,-0.4925945499,-0.3553402426,0.2618278264,0.3072996097,0.149302356,-0.71775759,0.2168533209,0.8301536432,0.5904150858,0.4060388612,-0.3153170435,0.1701831878,0.1119491912,0.3981014787,-0.1495907938,0.5572021952,-0.6270610009,-1.0106540623,0.9454561984,-0.3801106801,0.3830102193,0.3320552956,-0.462389778,0.2572343158,-0.2649800619,0.9401588126,-0.5326224635,0.9876069299,-0.70307942,0.5838266639,-0.4246156391,0.5234552855,0.0859698224,-0.85635336,1.0009534804,0.5696322876,0.641544012,0.1623320658,-0.182101215,0.9839514358,-0.306151407,0.2959422838,-0.9127904536,-0.2290179291,-0.4125789827,0.9446283754,-0.5770423427,-0.3068520699,0.3029668428,-0.9375225648,-0.8888055291,-0.6168472333,0.7436238077,0.1874476685,0.3635933025,-0.4744473799,-0.0505947204,-0.0435219912,-0.7686339295,0.7274222659,-0.6981173835,0.8122758052,0.9218611524,0.8787083288,0.0346865725,0.9381923135,0.8818133139,-0.8941872692,-0.0805576003,0.0297965935,0.2092727604,0.9072892841,-0.3697904672,-0.3351370856,-0.8210623277,0.9391390194,-0.996047798,0.7589357202,0.4424864599,-0.4814446664,0.3069657172,0.393208759,-0.4909877574,-0.1914939724,-0.2282877103,-0.5179858665,-0.3841667461,0.3334675173,-0.7571986814,0.5318969492,-0.5923560463,-0.5060255763,-0.6064717769,0.1848516964,-0.1895387326,-0.3816948898,0.0824793343,-1.2902849591,-0.2242057528,-0.6955718203,0.0003195763,-0.7652097649,0.8691491702,0.6694140989,-0.1408470561,0.1037420729,-0.1352909042,0.8501981344,0.2250268543,-0.5161747334,0.5298036968,-0.5067719876,1.1682577731,-0.9995800648,0.8773434144,0.9461109902,0.1880983986,-0.4863240242,-0.215241364,-0.1418052718,-0.5409015859,0.4897954403,-0.8777718535,0.1867526724,-0.1381419345,-1.2066887933,0.5805654281,0.2300001692,0.1640635059,-0.6757226282,-0.8838541215,-0.704772472,0.4719380135,1.0049968278,-0.3880674838,0.434558538,0.8276055237,-0.556718872,1.1292894769,0.4370658645,-0.3249755429,0.5623062927,-0.0702127755,-0.2338511422,-0.0605470925,0.5098107511,-1.1707559584,-0.0820587575,-1.126464051,0.0237702498,-0.5020221182,0.6718728698,0.2671206657,0.5612407883,-0.2205844167,0.7688135879,0.5216113772,0.4906518324,0.9633152,-0.2972650691,-0.1219883735,-0.3885181731,-0.9818108675,-0.2355980718,0.6669863028,0.3152499685,0.0919947661,0.0582573717,-1.1675751686,0.688310466,-1.0051710551,-0.8819038017,-0.1243642213,0.4410075829,-0.7190910064,-0.2720654893,0.6203183749,-1.0138577131,0.2352708698,0.367684747,0.1375728519,-0.5581324244,0.6192769938,-0.0670796376,0.446444875,0.3889116836,-0.8594988025,-0.2975279468,-1.0727939079,0.0364419577,-0.264738908,0.7772269468,0.429026808,-1.0448585337,0.24145511,0.2789824319,0.1295758574,0.6893176881,-0.0372257858,0.7211055186,0.0542248481,-0.8733813814,-0.0984507901,-0.9030457738,0.27504117,0.6819085026,0.4485295203,0.6463913361,-0.1450549719,-1.0196782302,-1.186845495,-0.0817258543,-0.6708793492,0.9635784786,0.771511343,-0.2776234423,1.2135069333,0.3724515005,0.124394137,0.8065799174,0.0168675246,-0.9379641278,0.6283761802,-0.1728010087,0.3649514258,1.0728262598,-0.5899081917,-0.0987445328,-0.5676081186,1.08896184,-1.1358431178,0.3561326777,0.8296194897,0.0141709955,0.7653384018,-0.6820104999,-0.6393709107,-0.5289846116,-0.4670669334,0.2589254986,0.1162173823,0.2503453214,-0.2258194799,1.0789644657,-0.4775366388,0.4574762801,0.8822711374,0.7314024268,0.9470996944,-0.5248755092,1.1805068034,-1.1142826489,1.0976989933,-0.658120989,-0.3161809819,-0.4311236955,0.5932435747,-0.6072763439,0.1413146996,-0.4431504067,-0.44227993,-0.5234588672,-0.4362729031,-0.8901047743,0.2592397511,0.5982606895,-0.5722858564,1.181201995,0.5941154747,0.054031179,-0.7472740306,0.8746538976,-0.0126954639,-0.2123725123,-0.0992778447,-1.0015334925,-0.5433818933,-0.7975051487,-0.3978575391,0.122299911,0.7408697803,0.1091405611,1.1707060885,0.410674931,0.9470909098,-1.0102834051,-0.907008743,0.9851570287,0.3012103418,1.0310774729,0.481692219,-0.5789744947,-0.2238360535,0.4474128295,-0.6595121055,0.258098091,1.276307956,0.2634400089,0.8852715486,0.3049723857,-0.7972426366,-1.191259239,-0.6310502614,-0.6675336812,0.1086992456,0.2051297078,0.0524082456,0.5142155872,0.0017469687,0.623152776,-1.1585151154,0.5556876776,-0.4177123749,-1.0781734522,0.0972768012,-1.1204797875,0.0967486606,-0.9205817799,1.3220964138,0.7612484618,-0.3548596349,-0.1754740674,0.0122502911,0.5600860158,0.4385868463,1.0008097343,-0.6376829221,0.7713786351,0.9924151524,0.7584197914,-0.7399469955,0.1400815526,-0.6518985726,0.6407487094,-0.2406125933,-0.4211141524,-0.9263347218,1.1196642709,-0.7508067074,-1.0039766295,-0.6190393642,0.2676504447,0.5152597702,0.3988453318,-0.9280931665,-0.0759750601,0.5042208968,-0.9072747131,-0.0379239563,-0.6954067953,-0.1630830606,-0.7416857404,0.7783027312,-0.5931985457,0.7308882801,0.8442856092,0.2099335033,0.8355756157,0.940691362,-0.4613212014,-0.5795383932,0.1423347692,-0.430873015,0.5681455333,-0.2380578681,-0.1143147738,-0.0556011518,0.4159697938,0.6201960387,0.1639204964,-0.9971731708,0.8928761649,0.249531428,0.2056231278,0.47395609,-0.5878433416,0.7314622464,0.4981295866,0.5671046011,0.6722734556,0.7844773146,-0.133579715,0.4619368194,0.9429801162,-0.4215557246,0.2212721424,0.7210277557,0.0708494176,-0.5188204603,-0.6641498661,-0.1896576337,-0.3310787121,0.4074267112,-0.1649321682,-0.6818721442,0.5212580921,-0.7883647404,0.2347432962,-0.4061980203,0.7407736869,-0.2079167935,0.8366925837,0.6634938284,0.9421231347,-0.4571317054,-0.7280977034,-0.0612486227,0.6080721602,-0.4862157149,0.4482429168,-0.0650775667,-0.2710725101,-0.7279074503,-0.1745941802,0.4922874863,-0.1042593591,0.6701357652,0.0302332063,0.5781600928,-0.6117158844,0.5579561014,-0.5008370295,-0.2415100787,-0.1524960976,-0.4227963038,0.5725867509,0.8504923606,1.0212283451,0.136292181,-0.5990616772,0.3747780129,0.9776888202,-0.2249965954,0.1220131667,0.1810261376,-0.3630090943,-0.4143695978,-0.2729174464,-0.5351677915,0.2010903839,0.8409983261,0.6704466997,0.7120664089,0.7246710418,-0.6520988361,1.1504598571,-0.429847279,-0.7342375929,-0.5325695484,-0.188919757,0.2671835429,-0.3780488176,-0.1064222795,-0.5744775676,0.2846162957,-0.9716025743,0.695178767,0.1944719864,0.3403149024,0.7553375854,0.3610187629,-0.4670455749,-0.9528080157,-0.2256856569,0.9718504403,-0.6739232958,-0.7830191368,0.6700785345,0.3717514759,0.3382947639,-0.3559444998,-0.5955954094,-0.8818726279,0.9864715769,-0.5019483927,0.5210145278,-0.0325314031,0.5202650853,0.4497816029,-0.4014919239,-0.0397034567,-0.723717057,0.4040219198,-0.7216026522,-0.7131207003,-0.8123415826,0.8777865498,-0.380827198,-0.4234878636,0.4554752251,-0.3676515331,0.452315663,0.0528644911,-0.807451026,0.0920893136,0.284926631,0.4753103507,0.4967249379,0.890161872,-0.2616553093,-0.4148953465,-0.1887116484,0.5303584947,-0.5038175714,0.8188836446,-0.4270682854,0.6466137104,-0.8087924807,-0.6848347225,-0.8513169216,0.6472824768,-0.616307563,-0.514605927,0.5952494373,0.2835914455,-0.0473613017,0.7786611734,0.315114138,0.6743713244,-0.2777007716,-1.0537373808,0.1745695914,-0.2618996487,0.6983206389,0.6349238793,0.0162580778,0.2797172258,0.5292435056,-0.0926188696,-0.1741744877,-0.5935498101,0.3646670795,0.8294974711,-0.5043378506,0.0602461563,0.2497304092,-0.6369196586,0.6001356828,0.5294682107,0.6739188424,-0.7593939253,0.102956042,-0.0903072757,-0.0712159527,-0.5113945746,0.8448205379,-0.3628197853,-0.3645092204,-0.1977779409,1.0019151298,0.8530642606,0.8957110622,0.4428002845,-0.6135099682,-0.5882214917,0.64870514,-0.6763902321,-0.7266889752,0.7052586624,0.7440301835,-0.367990214,0.3700468789,-0.7188738602,-0.91805562,-0.4617209441,-0.9298114897,-0.819909931,-0.065535277,0.1432224704,-0.5302215229,-0.3503397272,0.0475735104,0.0908362199,0.4315918412,0.3691850125,0.3997623707,-0.3010867217,0.8325516204,-0.1811006557,-0.4383793067,0.8254806307,0.0435604549,0.6853874254,0.3269704866,0.29886367,0.2532717107,0.074351563,0.7672287453,0.7864793137,-0.7392221504,-0.01239873,-0.0807443295,-0.2759687394,-0.8729587046,-0.3365366611,0.0315052518,-0.4481804927,-0.4030967305,0.7499687679,-0.1263390305,-0.7106171197,-0.0693840647,0.3014729334,-0.0412320858,-0.6560227345,-0.6372486612,0.336347972,0.2406288354,-0.6434225225,0.3054284438,0.1224556947,-0.1870428517,0.3631190163,-0.5863504561,0.3108327882,-0.0213772917,-0.8680428521,0.6236407517,-0.5458905489,-0.7625594496,-0.9856975761,0.3874953018,0.267812499,0.8431253035,0.2438529104,-0.5482348191,0.5053306106,0.4973755458,-0.108682651,-0.9624133401,0.632682306,-0.9901785935,-0.3203457833,-0.8054963997,-0.129302657,1.002533766,0.4846488458,0.4599353053,0.9064586641,1.034739742,0.3498362217,0.2735060015,-0.3212174008,-0.0877663472,0.5841236141,0.0010022459,-0.3481239762,0.2959271703,0.0967164355,-0.5293177219,0.2348400329,-0.4750329863,0.2688543889,0.1220956326,0.5383829778,-0.9045019184,-0.3348730387,-0.746063523,0.7638011379,0.6075333057,-0.8579894036,0.1828214269,-0.4683039611,0.4629554672,0.4160504062,0.1064531996,0.4580587641,-0.8859541533,0.5530596592,0.681450223,-0.2718925165,-0.7168510361,0.5448502142,0.2573395439,-0.077241576,-0.3120405501,-0.7674898844,0.4518380343,-0.4558463234,-0.2705274192,-0.4769526073,0.7058427356,-0.4747565823,-0.4174744731,-0.6225879093,-0.936950116,0.9530068091,-0.5405448493,-0.906147533,0.5129033469,-0.5269917847,0.7229792056,0.1991586928,0.1691208787,-0.8986637724,0.3720658074,0.2147633068,0.0845826443,-0.8317223942,0.6285965828,-0.8224995993,0.4883658657,0.40494245,0.6234979548,-0.4183241685
   0.7558549999,0.2265213895,-0.6143302959,0.0183810649,-0.1951216145,-0.7939079075,0.0940961852,-0.4970259966,0.3551354756,0.4734175659,-0.736535417,-0.2751423132,-0.7226164998,0.2833655981,0.4981000018,0.2000282458,0.5432942408,-0.4916222521,0.4466570977,0.5925790591,-0.6592284254,-0.8728313524,0.7854983229,-0.0023916873,0.6423392712,-0.4127060831,0.9104426586,0.6973925748,-0.4998160864,0.5600099433,0.3316495073,0.4104412841,-0.22538142,-0.1964691156,-0.3937581334,-0.9973671123,0.939890649,-0.0760329497,0.1314619332,-0.9542161518,-0.4777490618,-0.0519401027,-0.4251716396,0.6942068901,-0.2651531083,-0.8391771526,-0.5649059563,-0.7354773243,0.8186209262,0.9530952725,0.018464531,0.7114230601,0.4983326386,-0.2967159957,0.2105547951,0.6583571572,0.9719936409,0.9131054527,0.9235602203,0.669407281,-0.558127682,-0.4236441147,0.5713750519,-0.3346635045,-0.0596302385,0.8530614013,-0.9041347534,0.7041854401,-0.2823947159,-0.3944492984,-0.0863115128,0.3997560275,-0.0542927467,-0.6437259576,0.295815293,-0.827899134,-0.6049962558,-0.3718998533,-0.1689539646,0.2208058593,0.4842821069,-0.4341614695,-0.6176092924,0.5059728704,-0.2546366959,-0.1058033913,-0.3022130912,-0.8027669265,-0.1983593807,-0.4535175407,0.2689745329,-0.0767946542,-0.8187538934,0.7783922715,0.582400609,0.9427036601,0.1663131512,-0.3034619866,0.8298915971,-0.0728830033,-0.3355123318,0.9446255158,-0.4031032472,0.3949133272,-0.9350821379,0.8834090196,0.8047964245,-0.5567504305,-0.9391373946,-0.4912844658,0.9458591486,0.3939265592,0.6168591181,-0.6066842988,0.3787651946,-0.7415413595,-0.8795757965,-0.2749929545,0.0342667661,-0.015031184,-0.4036827132,-0.8883615366,-0.9308922556,-0.7134163743,0.9486210893,0.3660046183,0.1953941697,-0.8620531314,-0.2952380992,0.4290262858,0.847799469,-0.3893091032,-0.1030243648,-0.3360252555,-0.5235589908,0.5387814667,-0.9338089597,0.7828805074,-0.6053372386,-0.7360558658,0.3596725831,-0.7414682487,0.7648415906,-0.3422228862,0.5546870247,-0.2557862336,0.3651587008,-0.5931304742,0.1289966481,0.3592455126,0.4108350904,-0.2071215517,-0.2084300865,-0.3672521604,-0.5717167274,-0.4073236731,0.0542261242,-1.238621104,0.9239817259,0.525428653,-0.2435942019,-0.0648178529,-0.6428247917,0.4309612966,-1.1337096679,1.3198987842,0.4924703104,0.4312645432,0.5760536584,0.071078095,-0.9880808759,1.255714979,1.2866841931,-0.7721212668,0.8794490116,0.0694452639,-0.0343332957,0.2989537316,-1.3230109828,-0.543546325,0.2040722082,0.9729816904,-0.3998441589,0.8393882834,-0.6707679522,0.2486484672,-0.4778425128,0.1849284627,0.1702428742,1.983525786,0.255889469,-0.5181837937,0.6507906636,-0.5086025087,0.0974490322,0.4162036163,-0.2048717868,0.6029831475,-0.7856144183,-1.1685721677,-1.2677988418,0.8038196024,0.5404415266,-0.0235943932,0.8022472219,-0.3305067246,0.5361120371,1.0951165798,0.4806998551,0.3522986437,0.1114472544,-0.6356407349,0.9857179633,0.9511283639,-0.8313671279,0.0989129943,-0.3081667497,-0.295366924,-0.7659991821,-0.1174755618,0.9345238511,-0.0034891148,1.3179435015,-1.327207873,0.3990412348,-0.4277394531,0.5923646972,-0.2889971337,0.5601351315,1.2751005499,-0.596856901,0.227227023,0.3954830355,0.4879618939,1.2661088618,-0.6275128292,-0.3292895091,0.3681566353,0.6022332584,-1.0796979806,0.4900660319,-0.4447932852,-0.0598453885,-0.0333833226,0.7034688258,0.8141021815,0.1209435726,0.9494618462,0.7266112251,0.0342639942,-1.2677091609,-0.209019013,-0.4355903273,0.2806254924,-0.3131727958,0.316095705,-0.0990893064,-1.1873272412,0.2771178873,0.5505733908,0.2946458544,0.1309130658,0.1093131812,-1.1057672408,0.8034135442,-0.5079688594,0.5356069995,0.7233896898,-0.3344374853,-0.2717545969,-1.0685824441,-0.4839440109,-1.0303467353,0.5932957459,-0.0085794833,-0.3693800892,0.080539007,0.055248598,-0.1864233897,0.5645432488,-0.5374116085,-0.5719052027,0.4080042862,-0.4995944516,-0.1059248767,-0.012226082,0.2132544935,0.0435047406,0.4155053014,0.7653288749,0.1769220417,-0.7414473687,0.7699731286,0.9168459577,0.4957430998,-0.2670690935,-0.3370702466,-0.7938257911,0.289701808,-0.0353497954,-0.694002867,0.3857527116,-0.4197654973,-0.4714186073,0.3939122742,-0.6183343012,-0.7874887903,0.2174804198,0.2102310152,0.8333340788,-0.7586761323,0.1433150347,0.5899486967,0.6654841459,0.3214063157,-0.7333196726,0.3878996273,-0.9600233891,-0.0208507398,-0.8553406466,1.0917913219,-0.7308887704,0.3217395705,0.4451276138,-0.9889003184,-0.7864093117,0.433750018,-0.162284416,-0.8152986023,-0.6660094042,-0.7358458742,-0.6844603642,0.5203757242,-0.1558741721,-0.3151681962,0.9391827007,-0.0812969862,-0.5607708172,0.7489574257,-0.3027335222,-0.2730259359,0.6780900126,-0.3056210356,-0.3364252528,0.5392415745,-0.6300913075,0.2839137386,0.6954119405,-0.8994661282,-0.7553232727,0.9581323095,0.1000029947,0.1617540138,0.1601287739,0.130033438,0.0123387798,-0.4102362434,0.4487091454,-0.3818123872,-0.6278136071,0.7553313047,-0.0981791776,0.4585416631,0.8329568202,-0.2683212723,-1.0852518741,-0.3306106726,-0.6988158193,0.8925426323,0.7127260198,1.1102207879,-0.4157077679,0.5155975875,0.1885699898,0.65083327,-0.8223223708,0.0574521379,-1.054112662,-0.8323857397,1.1066050797,-0.0283563202,-0.7845688866,-0.2877651003,0.4026576219,0.0831156971,-0.6294498862,0.1321657391,0.0625123861,-0.7301963618,-1.0839332637,0.2277863692,-0.4813061688,0.9037292556,0.4483634531,0.3602777572,0.4621143165,-0.6834409783,-0.0345438897,-0.4406449602,0.9578371208,0.6243453583,-0.681369379,-1.0194941022,0.3331052465,0.2504766731,-0.7044099836,-0.7707000628,-0.2244120321,0.6866483887,1.0543420573,-0.7036787613,-0.1906443065,-0.4470221143,0.9020444678,-0.2760071489,-0.5527360391,0.1713794298,-0.8889396912,0.9262490728,0.996061941,-1.0458321907,-0.5389841177,0.4235706675,-0.4508609423,0.6756602203,0.6777428445,-0.3317620419,0.7229103295,0.346275374,-0.0002114184,0.6265252911,0.8106486805,-0.8344385565,0.9161464448,-0.6273783549,0.3029705005,-0.5024690526,0.6059439108,-0.9606992905,-0.5006449386,-0.8112064427,-0.2488513206,0.3995078433,0.860661923,-0.4112693546,-0.4258329633,0.9581151762,-0.5173189437,0.5486162459,0.6575945127,-1.154537644,-0.7368707862,-0.5536934953,0.9071940121,0.1207739901,-0.6494096574,0.2032911598,0.5696639731,0.5418718398,0.6479132974,0.0321203335,0.6199624079,-0.3877961038,0.8447516552,-0.1369108545,-0.7742738166,-0.2588643967,0.3651528258,-0.4342830153,-0.9963872441,-0.2409146336,0.300914358,-0.413633763,0.8080718779,0.1453706378,-0.8160224521,-0.815202537,0.8530902042,-0.0797397555,1.0010287354,-1.0179748334,-0.2145490235,-0.4919327289,0.7303983871,-0.1421120112,-0.9371258174,0.5108205867,-0.1148687381,-0.223155342,0.0164817926,-0.0418879593,0.5513536731,0.3112284708,-0.8117129884,-0.6263516226,0.4163743185,0.2502332755,0.9127873857,-0.0361714386,-0.4157103711,0.2856789333,-0.4497207327,-0.8110244921,0.4290815002,0.8595390763,0.2748400603,0.8051192063,-0.2168051863,0.6150119208,0.2317686907,-0.5480552389,0.7162388469,0.3074534216,0.6825940484,-1.0437688386,0.6432856235,-0.3216627448,-0.361240383,-0.2013992537,-0.0409129148,-0.3323316484,0.034434004,0.6250836577,0.4957836426,-0.1310314091,0.4677850937,-1.0160901027,-1.0018053398,-0.61981828,-0.4455827772,0.5553119345,0.9085281261,0.5603114745,0.7206992666,0.631597136,0.2649156914,-0.2051893781,0.437230368,-0.2286465511,0.8748645214,0.0817464834,-0.0694943019,0.8413713578,-0.1046339042,-0.2763128079,0.2616663261,-0.6122453531,-0.5384281483,-0.4339508783,0.1769378744,0.0336682076,1.0068578896,-0.7622843399,0.5705788073,0.0081855535,-0.1430625041,-0.6213151631,0.6591170745,0.5203422826,0.0589791446,0.7168091303,-0.2891694593,0.623532471,0.6840598287,0.6130448641,1.250461937,-0.6089549924,-0.7098006522,0.6455220865,-0.3370296581,0.0837080457,1.159202063,0.6029151152,-0.5355166162,-1.206024736,-0.4433491155,-0.4993711672,0.1194204564,0.4762047603,-0.1133459389,-0.2823315555,-0.0315283411,-0.9071017134,-0.3479944152,0.8790270789,0.4123535324,0.6461394158,-0.4393737252,-0.653780632,0.4915766041,-0.174388917,0.181532354,0.6190197258,0.7959304879,0.5585199841,0.0171054991,0.4453174823,0.3190360557,0.1337819802,-0.1991510067,-0.5130244391,0.5608670251,1.0338082902,0.0716856242,-0.7221880542,-1.1137278123,-0.7594666692,0.3086002046,-0.2609711624,0.2042844441,-0.4206212002,-0.381077784,-0.5434889018,0.6161742467,-0.8703158636,0.6062146637,0.4591820454,-0.1167152204,1.10029778,-0.8370508421,0.1633777933,-0.9379281919,-0.6018613691,-0.5069707948,0.5718050007,-0.5400840837,-0.6804110526,0.2157377701,0.4147079764,-0.3983154424,0.3156757775,0.9962289728,-0.5316583845,-0.1703475844,0.3812594605,-0.9896453424,-0.4705746265,-0.7104536349,0.7506141692,-0.6841883165,-0.5972512509,0.3292522174,-0.6027036016,-0.1523215197,-0.1562792576,-1.0146218217,0.8096912178,-1.0249318643,-0.6516697742,-0.0935105551,-0.4101275187,0.0526335798,0.9263907788,0.566242985,-0.8669469983,0.3838505665,0.4144167429,1.1558051283,0.7938338598,0.6699256781,-0.7134185275,0.4701489975,0.0736222495,0.9652918074,0.0823697384,0.7626932066,-0.6786356545,-0.5589217023,0.103435813,-0.2580553626,-0.3787698061,0.1858928811,-0.7504462576,-0.0764870196,0.4031504176,-0.3922167062,0.9076443295,0.969000658,-0.0467857525,0.4279268437,-0.5868195637,-0.9241619738,0.0861201032,0.962880817,-0.3147172425,-0.8926737436,-0.4899100541,-1.0217407156,-0.2901171544,0.3910385122,0.486515271,-0.6192586829,0.6592626389,0.9013897338,0.6425275865,-0.5411342333,0.3934076539,0.2116641384,0.467064762,0.9429672759,0.2090211914,-0.7516181484,0.3207380752,0.2288603303,-0.6746078655,0.7451099782,-0.5722561253,-0.832598447,-0.7771611203,-0.0987243284,0.6887863571,-0.2114685385,0.2131469615,-0.3168954644,0.5896173611,0.2435397311,0.825766635,-0.3036471543,-1.0351251991,0.3655205569,-0.4169593694,-0.9480609931,-0.7289782127,-0.4828576671,-0.267874081,-0.1404665812,0.219573953,0.1557909247,0.9429957415,0.5361500838,-0.2961941766,-0.6504953733,-0.9323010552,-0.2949339098,-0.0237261373,0.7233259722,0.9324632423,0.9370646272,0.7947137031,0.456974921,0.9908668254,-0.2882177251,-0.1208207186,0.582442581,-0.1859028194,-0.3194107659,-0.3200990342,-0.4631115028,-0.185605304,-0.2175616249,-0.1241730871,0.3970487952,0.8792586893,0.7000979999,-0.2149313633,-0.8783818186,-0.9431151923,0.1326033488,0.6821444794,0.0945003338,0.7833255121,0.8437044932,0.2769784957,0.5606776224,-0.054463417,-0.2989822436,0.2435876672,-0.6535007281,0.2734076611,0.5757887935,0.583788855,-0.1509047761,-0.5845322352,-0.6073482408,-0.3188009289,0.2401909558,-0.3356479494,0.7412668985,0.1236609505,-0.0489294317,-0.7486551208,0.0291026828,0.923976611,0.0790565673,0.063813482,0.8763988353,0.7635949999,-0.7901693861,-0.1481902659,-0.5881075095,-0.9580525679,-1.0210821362,-0.1231417857,-0.7062529117,0.0763258373,0.2740053748,-0.5906376316,-0.2903332514,-0.8431471489,-0.7631536922,-0.823705995,-0.3916034397,-0.4320722049,0.9753625527,-0.4345234174,-0.4916022591,-0.8213784259,-0.2381922892,-0.5160144495,-0.3120318936,0.2458858351,-0.9695329746,0.8884324391,-0.6300772457,0.6084727233,0.3076559644,-0.0723337011,0.7710444969,-0.3944995238,0.4777231322,-0.0776837644,0.7941655161,0.1286930601,0.6501740915,-0.383817331,-0.1225521142,0.7573942893,-0.8740338307,-0.1658859544,-1.7801200875,0.024726427,0.8482889011,-0.5869490016,0.3649209437,1.2414200106,0.9540708375,0.2902009247,0.125784198,0.9451354098,0.5488068263,-0.3240769062,0.5387160753,0.0974595051,-1.1132342908,-1.0072477267,0.0829500123,-0.6427227866,-0.3997501768,-0.8465359375,0.844632017,0.1626979082,0.8079179567,0.8101570471,0.2473601317,-0.0836005786,0.6992451952,1.0374369792,0.7252519713,-0.2235905473,0.1329379315,0.179677311,-1.0590010218,0.0439248628,1.1293090877,0.0855390662,-0.073229235,-0.8998418365,0.2529331496,-0.072323871,0.7044904838,0.0467640385,-0.8766537675,0.3986226244,0.8198745392,-0.2338035849,-0.1468542265,-0.0468694112,-0.5727919138,0.9193112796,0.0852229843,-0.7181322676,0.9367460186,-0.9020944549,-0.4654139995,-1.0017466969,-0.5727851595,-0.1917566047,0.2172831212,-0.453766619,1.1670248286,-0.2039643834,0.1109227378,-0.1054777371,-0.751456597,-0.6705469349,-0.6625016564,-0.0463995717,-0.196214038,0.3172631336,0.862100504,0.1537428337,0.3809584063,-0.8517587139,-0.7896309234,-0.3737000289,0.2907722402,-0.8152550264,-1.0572171211,-1.0818083241,0.233734674,-0.1598822683,1.0469067477,-0.304266913,0.6345172294,-0.1685899577,-0.6597634354,0.8009231449,-1.0867266884,-0.1604008257,0.2242521302,-0.2882520306,-0.6597147427,-0.1908505639,-0.2573006717,-0.5742224774,0.1567564216,-0.5844454877,-0.1655878734,-0.7096272248,-0.1099573402,0.7413795511,0.2446929112,-0.2107343308,-0.5500148352,0.2340910589,0.5530745154,0.5923180827,-1.1214342465,0.1664404963,0.1975378618,-1.2204043515,-0.4346818651,-1.2208392168,0.3158860132,-0.2907693555,0.3470648388,0.1894913616,-0.8076515729,0.760146694,0.1385125655,1.0070630727,0.1503025443,0.0283847445,-0.3112771716,1.1466507754,1.1236698333,-0.6844186146,0.6018481929,-0.0351474092,-0.9715976621,1.3003808489,0.1885083254,0.0316331277,0.8109519414,0.0026824322,-0.2557509387,0.6178096795,-0.3615576083,0.1151712853,0.4259658689,-0.5903908822,-0.1418829334,0.1653129772,0.0865904636,-0.4038801726,-0.2339679774,0.6204861016,-0.4986265952,1.2102742846,-0.5067306931,-1.2504385454,0.7962783217,-0.0368865429,-0.6468568093,-1.0838188097,0.4115252549,1.1586996993,1.2318164427,-0.8749456824,-1.0839557867,-1.335566081,0.3433039133,-0.2211379675,-0.3600533169,-0.1522151795,-0.3170368773,-0.0046662896,0.6015137407,0.3556234999,-0.7888214803,-0.1318322756,-0.6261765616,-0.3126599042,-0.4286403105,0.6854177426,-1.0051277028,-0.6091170256,-0.4057474656,0.7844771823,0.6560586489,0.8288659336,-1.1859998014,-0.1259629729,-1.2223192408,-0.2843186424,0.1763838138,-1.140155128,0.4487294677,0.5850626342,0.4270423837,0.1629238751,0.6552410657,0.9467041992,1.287005142,-1.2861611812,0.262807914,-1.1863748416,-0.8871485583,-0.0685816367,-0.6602015583,0.4613694488,0.5362836189,1.1468687333,0.0627481794,0.4930043549,0.445263084,-1.0917720996,0.0878812813,-0.4958436161,0.299696362,0.2805199042,0.6377271978,-0.470182777,-0.3041871021,-1.1707060189,0.1435138827,0.4376845208,0.6308331866,0.5541057379,0.8808728609,-0.089396464,1.2104947326,0.3510176917,-1.1022216215,-0.5252826981,-0.7826559505,0.8953428835,0.8437193456,-0.8520517909,0.1991046326,0.1008348365,-0.4295749885,0.3064085202,0.0727320948,-0.9501294526,-0.4663325161,0.2705341057,-0.8638513997,0.8956624105,-0.0769874188,-0.2652528385,-0.8998181336,-0.1460941565,0.5514989216,-0.1099911085,0.5817820179,-0.9932235537,-0.3782651233,0.1355622385,0.2258552993,-0.6061672208,0.6630015524,-0.55846443,0.9431438921,0.4725867489,-0.1226982064,-0.3729290236,-0.2980279441,0.847966918,0.9881947529,-0.589325984,0.6134960511,0.7893374892,-0.5031627893,0.4912716318,-0.8370110509,-0.7466728183,-0.9204087216,0.7138452353,0.4566954065,-0.2166378961,-0.776091515,-0.3981000698,-0.2692374387,-0.4019309786,-0.2059627013,0.4759341256,-0.6996060508,-0.628217786,-0.3420710322,0.6492266837,0.7857763127,-0.74999885,-0.0756994834,-0.002608996,0.8824227225,0.0869056857,0.2812224917,0.0333275662,-0.9390658041,-0.0900587314,0.7914908605,-0.3514439917,0.6718089173,-0.6032578844,0.8279542084,0.9406678203,0.4647909001,0.5643647653,0.5124895225,0.0309059655,-0.4965718048,-0.967053413,-0.4167884833,-0.615461234,0.6365634165,0.4639759704,0.9702579066,-0.9494223122,-0.8188557767,0.5209052432,0.4742509035,-0.5176517312,0.4325918181,0.0138130833,0.4103122962,0.1829913127,0.0454886827,0.8899741124,0.3628091963,0.4018329541,0.4415415356,0.9444213579,-0.147102172,-0.6946853259,0.8923473877,0.5928233721,-0.7040348883,-0.0695712375,-0.6272705871,0.9273038674,-0.6851501856,-0.5195921874,-0.029703027,0.6445274618,0.4279094436,-0.2542365522,-0.6445433313,0.858827112,-0.7782567799,-0.238183414,0.7133051228,-0.882676548,0.2712565413,-0.962681597,-0.7699942395,-0.0998537903,-0.1956339658,0.3774273059,-0.9174760413,-0.3121637442,0.5580812316,-0.360236793,0.3855302504,0.8946393924,-0.0997893432,-0.390899231,0.90286811,-0.2540382582,-0.1249968773,-0.5757959377,-0.7175637296,1.1347069997,0.8596680186,-0.8485330827,1.0386963226,1.2716962721,-0.2664347121,1.3525292705,-0.1460171382,1.2062068674,-1.23387267,0.6518555744,-0.0376908302,0.122030056,1.4582607172,-0.7076666736,0.3102247831,-0.372711182,0.3071296118,-0.0170383263,-0.2401085726,0.3522925308,0.0328589612,0.3793886181,0.4388254246,0.0122441541,0.4621827059,-1.1997500409,0.1789874635,-0.4403944569,0.5353713105,0.3518135293,0.254212676,-0.5434436593,0.1617585012,1.2287504848,-0.7946245914,0.084642455,0.5065728948,0.3623581414,0.123721122,1.0202801864,-1.2893068298,-0.9246471051,-0.022610877,-0.305080469,-0.1714885039,-0.0499441012,-0.011761637,-1.2901811579,1.3325746615,0.1310557853,-1.0244700321,-1.4893490763,-1.3695438561,1.2802329305,0.8987655153,-0.4195726817,1.233008183,-0.2977244203,-1.1517265826,0.1726743431,-0.4811405515,-0.2078781388,-0.2729010429,0.0455949641,1.0749489382,0.9115688049,-0.8645670625,-1.298931947,-0.4078390798,-0.740266541,-0.3607827977,1.1026785517,-0.929934559,-0.2321764687,0.9874044208,-0.1563568389,0.7984391261,0.2758357312,0.5268447025,0.3894851896,-0.0908054361,0.4948523433,-0.0579445186,-1.3883014483,-0.3687593095,0.9188573023,0.0052461429,-0.3883790701,0.2485117732,-0.2326230913,0.3176371156,-0.1484572602,1.2038568261,-0.2653761029,0.6655049653,0.2162259108,-0.1961488389,-1.4937383323,0.1868800411,-0.1601107007,-0.9463662069,1.501876448,-0.2768464903,-1.3640304916,0.5034532928,-0.662262935,-1.3295144377,-1.0024071366,-1.4300649089,0.0425653744,0.3634950847,1.4716639526,0.2513040636,-0.0322431534,-1.2947012822,0.9741764916,-0.6147111494,0.2350290233,0.7431329003,-0.3333030924,-0.4543108498,0.7063657795,-0.7056542221,-0.0052667031,0.1903947954,-0.7741337098,0.0015160443,0.6498220805,-0.8484348883,-0.4886708776,0.6545323402,0.2432275407,-0.502197608,0.4884128773,-0.2129544845,-0.3717521775,0.9224612821,-0.0616057625,-0.5440869816,-0.2290533185,-0.2184988364,-0.1276267529,0.8602889542,-0.7213292987,0.1107856214,-0.2067797673,0.4358494148,0.6242361892,0.4031067082,-0.104517241,0.5856793882,0.1426392299,-0.0716178147,0.2151425728,0.6712837207,0.4875984836,-0.9217486564,-0.8339935671,-0.8685059538,0.5088762421,0.6862340105,0.3619594698,0.0767003146,0.1973424798,-0.919860448,-0.8488971927,0.3296274957,-0.0219987516,-0.2308610187,-0.47411021,-0.6166449652,-0.1982437126,0.4431388908,0.3753893368,-0.6029452894,-0.0882767355,0.3149008118,-0.9487460311,-0.4400721624,-0.5000533414,-0.1090601736,0.2479428942,0.6277798747,0.1094826468,0.2013510005,-0.3642614526,0.2857905105,-0.1747414621,-0.3181309079,0.209900226,0.3574006378,-0.2629181529,0.3474253937,0.8320882092,-0.9630018509,0.8498068993,0.2768007151,-0.4945957407,-0.6632020773,0.5587819021,-0.5980652024,0.9813881147,-0.2921514868,0.5750345204,-0.0196933079,0.2505825725,-0.6508608099,0.2882430407,0.9284524787,0.8278719896,-0.9051385357,0.0905908974,0.7861375193,0.3990154862,0.2482212367,0.7887576306,0.1780869045,-0.0941655727,0.8020725345,0.0793797387,0.058653306,0.4167372346,0.6389046617,0.2308878991,-0.023341624,0.5628559447,-0.3190479461,-0.3511227026,0.0520181923,-0.5822632851,-0.0132022247,0.4728855933,-0.4357455171,-0.6485415383,0.6415732735,0.727414115,0.637004175,0.1147561238,0.7203495309,-0.8015132743,0.5986387184,0.0171074932,-0.8252403722,0.4191119651,-0.6884281328,-0.4641484462,0.235016247,0.0561438369,-0.562489521,-0.8882707766,-0.7286873953,0.7070642029,-0.6649523842,-0.1698533927,0.9122275211,0.1874896906,0.143778397,0.0490869811,0.9839268519,0.8920975957,0.7151782279,-0.267096756,-0.1433667357,0.6448881445,-1.1791255735,-0.507876009,-0.13941269,0.3486497186,0.5810320078,0.7954974255,-0.4152468418,-0.0898606024,0.2850361258,0.422059165,0.2866935208,0.970127508,-0.3600807603,0.3850249464,-0.8715601068,-0.0147589112,-0.4191966359,-0.5246927951,-0.8704378378,0.355981607,-0.6234728543,-0.5506875651,-0.4010696838,-0.7946704869,-0.2971433535,-0.3287638696,-0.5513427704,0.5276171296,-0.3863522363,0.3285279651,-0.1644204037,-0.7645193183,-0.8928361272,-0.839419251,-0.8507442788,-0.4828111191,-0.6520263392,0.6285042298,0.1753156372,0.4233814501,-0.155845192,-0.3552008873,0.6440411946,-0.3941460434,-0.3684599792,-0.3940405606,0.2992614957,0.1716622176,-0.3748827866,0.1795753699,-0.2196637674,0.7593733588,0.1755934286,-0.5661091345,0.1198113608,-0.2530498262,-0.6270364401,0.1588483969,-0.1222156333,0.267082707,0.0830237247,0.130419358,0.2416875606,0.4683193258,0.4502168848,0.7700907387,-0.3415522663,0.3396213302,1.0344753388,-0.5338825285,0.2475614363,0.963245207,0.5845174138,-0.797475066,-0.6058729807,0.0136340378,0.7238472451,-0.2299329746,-0.0882788612,0.6844824439,-0.6503820837,0.7922890316,0.411191273,0.7204946841,0.9014359567,-0.0781167273,0.6190486103,0.1112718456,0.9657785327,-0.6919649111,0.6333322468,-0.3405627068,0.6918765104,0.7004658128,0.5638503365,-0.4686622419,0.6473947611,0.1539831413,0.0054598849,-0.874590699,0.369716937,-0.696873203,0.3809650529,0.64893874,0.0271026871,-0.8716337345,0.5199115723,-0.6654552499,0.7743550607,-0.2050077532,-0.29468774,0.3965026986,-0.3076846426,0.50059929,0.1480599699,-0.973411517,0.3820546209,-0.1532927052,-1.2384436818,-0.3969131229,-0.0953054533,0.6291543503,0.1272717685,1.204311034,-1.070135736,0.5945704822,-0.3863427321,-0.3948418028,1.1141122062,-0.3897483687,0.2651332501,-0.447989977,-0.0460966537,-1.0804288351,-0.7555753925,0.2566306843,-0.0978105214,-0.4402668884,-1.0299450055,-1.0970650846,-0.5931898167,1.3000910253,0.1730699972,-0.085120545,1.2699762423,0.1154744308,0.3664276207,-0.242382853,0.5363964049,-0.9511770003,-0.9929691899,0.731749376,-0.4774908611,-0.210232985,-0.677449201,-0.5994500329,0.5373846648,-0.0552905235,-1.1804191229,0.7771412417,0.0891149204,0.8193330337,-0.476893718,-1.0444157871,-0.7729433023,0.7645226504,-1.3304756841,-1.1913210641,0.4787214995,-0.0162471756,-1.0659982328,-0.5570531944,0.2484462033,-0.3357986476,-1.0622533044,0.1211922356,0.0371042184,-0.3027537134,0.0480170152,0.2670575034,-0.9019269606,-0.5480168732,-0.8864142533,-0.3428865237,-0.0867812324,0.4506115946,-0.9155156226,1.2215536385,0.1264140266,0.1214989392,0.0792663475,-0.4141323059,0.2932941668,-0.0819235645,0.9925493844,-1.122024103,0.399382911,-0.0750559744,-1.3147937232,-0.6171189889,0.6343762153,0.8301065341,0.4457642381,0.0555083332,-0.2496071239,-1.0152669231,-1.0412115318,0.4568302651,0.2856025196,-0.9166884144,0.1752245761,0.4050060149,0.7608376871,0.1938217627,0.5518887701,0.2116585122,0.555265245,1.1038260171,0.5201659847,0.8549396202,-0.3366990867,0.2372862515,-0.8388133583,-0.3152268981,0.3199529425,-0.1051003962,-0.5473092755,-0.335808956,0.0580789011,-0.0803299299,-0.7150664762,-0.2583145379,1.1657750307,0.2300958281,1.0606505168,-0.3173355955,0.1565294782,-0.5753399725,-0.5157128264,-0.4097808601,-0.8607986583,-0.0819047729,0.6675300406,0.7110761802,-0.9092699048,1.1261437293,0.4822724855,-0.1158382882,1.1213984623,-1.2943352516,-0.3530275277,0.8404595343,-0.4394975463,-0.2886571366,0.7876372066,0.0790280928,-0.778284039,0.6568196869,0.1935941439,-0.3657158401,0.1103826877,-0.3107106029,-0.4451853517,-0.7617235203,0.3114610504,-0.2330514025,-0.0207734353,0.4616875118,-0.5357604431,0.6092690094,0.3436859373,-0.8230804126,0.1710587742,-0.4785186515,-0.364998144,0.0337242116,-0.3818664129,-0.1375184985,-1.1851019516,-1.0384345686,0.8402803113,-1.0661986154,0.7497220077,-0.4603126277,0.1564418852,0.8470852519,-0.2731288379,-0.4585111946,-0.5390829339,1.1232250715,-0.1827207779,-0.4377729754,-0.4515034509,-0.7291328146,0.3236035095,-0.5354951054,-0.5053690523,0.0676567482,0.1603190098,-0.7640770307,-0.2634201883,-0.3585549881,-0.9406842214,-0.2355919639,-0.5640301914,0.0968372617,1.1438859668,-0.4413465803,-0.5698528619,0.2218197622,-0.9369045757,-0.725901014,-0.4110246992,0.1250599946,0.4425831497,-0.400619006,0.729418566,0.1649052222,-0.9669253473,-1.0362741558,-0.6499810496,-0.7057238231,0.7475141598,1.1105756263,-0.5690310409,0.5307916823,0.4057408059,0.433613614,0.6741286146,-0.1828864497,-0.2482299454,-0.4141586159,0.1180766811,-0.3902346045,-0.5925503666,-0.3157522918,-1.0204269486,1.2442022936,-0.2618569142,-0.5059619887,0.479844653,0.1650550806,0.007027472,-0.2970018267,1.1975050436,-0.8677604064,-0.0565706828,0.4958941672,-0.5083103757,-0.7746156394,-0.4580912491,-0.4727264116,-1.0262064616,0.7653912038,0.5458033155,-0.9809954058,0.7510254254,0.5189203031,-1.2733981938,0.194817084,-0.5440020982,-0.0029944859,-0.5108388794,0.677806277,0.0810875952,-1.207006947,0.5794421706,-0.2118780158,-0.4473579803,0.6359511474,-0.3129120159,0.5367475779,1.2279866829,0.4552426193,1.2950994879,1.1994014583,-0.3848712132,-0.3536619062,-1.3113693941,0.1353518823,0.8052501996,1.2151073964,-0.8349921948,-0.1929746421,0.9189257102,-0.5575098118,-0.6235530404,-0.2367731996,1.218262898,-1.1976943001,1.0977455665,0.067742347,-0.8632292961,-0.1291744172,-0.0058858212,-0.4034395282,-0.6591833583,-0.7421718702,1.3267273225,0.5484056829,0.5505444689,0.5924883633,-0.1099478876,-0.001053121,0.6334982852,1.2446627489,-0.4956454269,0.62152127,-0.1139691035,-0.135621975,-1.0685495088,0.4910558511,0.6257175417,-0.61010664,0.7706158891,-0.6168038269,-0.5429892492,1.2684629926,0.2007141924,0.488925208,-0.2691977769,0.6217436522,0.3889497796,-0.3563942491,0.6279677911,0.0998524665,-0.1570838005,-1.3115339184,0.6281058293,0.8434433698,0.9556178039,-0.736760923,-0.8711838201,0.0307018068,1.2393244056,0.7150753415,0.9187868147,-0.6167912818,-0.8583128974,0.4165235861,-0.1703470711,0.8763204622,0.4517704912,-0.1476096293,-1.1994737893,0.7112552055,0.8003022536,-1.0758721927,-0.8379034958,0.2549908943,-0.6420705053,0.1500078911,0.5011522019,-1.3182970025,-0.8738688746,1.1228806913,-0.3119255634,-0.041138863,-1.0605813497,-0.1826782437,1.0058914548,-0.0524115486,-0.0480416422,-0.3174036651,0.4120261518,-0.6538745117,1.2104117285,-0.3424266892,-0.5975703504,-0.5007795476,-0.624422814,-0.4160614555,-0.5903079533,0.2949086232,0.2902593357,0.8192086738,-1.2306700369,0.96940571,0.4484158312,0.2060639421,-1.1850047022,-1.0741335346,1.0811255984,0.2618629742,0.2965544225,-0.6502823133,-0.8950216778,-0.2713653563,0.5828151424,0.6101031832,1.0504819274,-1.114950194,0.1381554705,-0.0022932391,-0.6448102546,-0.9532968239,-0.7233947441,-0.1375822052,-0.6397086952,0.5166458455,-0.0569977611,0.838210852,-0.9584605343,-0.7298173574,0.5406158067,0.9055941575,0.2704828271,0.6018480719,-0.8314557281,0.0566157152,0.5250044286,-0.120560851,1.002661945,-0.2156860717,-0.545431039,0.8122263395,-0.7976707866,-0.2952562207,0.1973804638,0.0225216919,-0.9831999872,-0.1988122187,-0.5846175624,0.8997723637,-0.1483502979,0.6931366457,-0.4662776381,0.2733756673,0.6941110037,-0.9794001328,0.0128833742,-0.1049656505,0.732683019,0.0476253533,-0.2759190312,-0.5714370556,0.2183729703,0.1050286265,-0.1888829688,-0.7938345969,0.8782264089,-0.8046351968,-0.8981676642,0.9657738019,0.4887454441,-0.7540119692,-0.3109346865,-0.7320325111,-0.8908866954,-0.5814358177,-0.3793574448,0.048435374,-0.3391104007,0.0093786338,0.564677364,-0.5706760871,0.0356228566,0.0055336692,0.5391862044,-0.9262799852,-0.1494364798,-0.0122527378,0.7565527662,-0.6284696333,-0.32470129,-0.5873907996,0.0420302299,0.4210436144,0.5923602275,-0.1554294389,-0.093885974,0.0011321326,0.3232983575,0.2586544021,-0.7047066582,-0.0881638372,0.5956148251,-0.2480620585,-0.7421700844,-0.8530145334,-0.8923209851,0.4490009785,0.9230767568,-0.7842234022,-0.0709484995,-0.3926032201,0.9427379088,-0.4415735136,0.5250831313,0.0940907193,0.7932619138
   0.6773511809,0.5045676778,-0.9003807491,-0.7738183935,0.6775244819,0.7913938176,-0.7991327098,0.2532308119,-0.4862192241,0.2195463144,0.6587441108,0.152155382,0.3210892408,0.4645142457,0.8149182204,0.2271095817,0.6920162879,0.2065716401,-0.9445688343,0.0172685039,1.0616630439,0.4196437077,-0.1109436361,-0.3754121297,0.5962866221,0.8695528921,-0.640944091,-0.950701623,0.1758138155,0.8091785285,-0.1210518515,-0.5284312159,-1.0416743119,0.3694688075,1.0621881875,-0.1690310265,0.5489115279,-0.0493783028,-0.4041082442,-0.0157558839,0.336354165,0.5515307507,-0.8873145242,-0.8581571191,0.8651533559,-0.1167995032,0.6672466886,0.9137885037,-0.3579396499,1.0434640327,0.6991047944,0.0746730618,0.8604826641,0.039704181,-0.547094924,0.3586027495,0.8773436116,-0.0125359304,-0.3779395327,-0.7151987084,-0.8575845626,0.0923828648,-0.4905736352,-0.639768255,0.4012883863,-0.5035488109,0.7480080007,0.5715827952,-0.408914666,-0.5524735871,-0.5295906956,0.5214137785,0.4819146077,0.8245263122,0.3656351349,0.1073760802,-0.2503355207,0.2058159002,-0.1950819225,0.6726673292,0.407519771,0.1058379816,-0.4812037488,-0.2115228256,0.4701866643,0.6073990926,0.7766913804,-0.36298409,0.2086139067,-0.6585998947,0.0019223495,-0.9302973639,-0.1051105915,-0.7800576818,0.717129349,0.1091445114,0.4708889041,0.586658525,0.6615352196,-0.7650465891,-0.3067158259,0.1966137952,-0.4733470637,-0.8213465842,-0.8445767559,-0.6127821982,0.4561780566,0.0593839381,-0.3834782923,-0.4918075724,0.4787214689,-0.5165821126,0.1666612567,-0.4279800096,0.1889980259,0.9949404795,0.5952395727,-0.108741764,0.6578456943,0.316549077,0.3427380582,-0.1153950977,0.6465188078,-0.6586641195,0.8421761055,0.1689649019,-0.4660639993,-0.0515291468,0.8147204143,0.8724227874,0.3050982616,-0.5327299141,-0.1091117812,0.9008719433,-0.5095916075,0.0538691161,0.3570194261,-0.890598707,-0.5865523612,0.3282659993,0.2702632953,0.9179342102,0.7520985155,-0.5814390917,-0.3298658611,-0.5176293368,0.8493209687,0.0595007944,0.46786945,0.2837123879,-0.7408663454,-0.0069484122,0.6770961136,0.3374908128,-0.931336176,0.97718601,-0.9619876983,-0.8022017164,-0.5054209884,0.3811921544,0.9650435458,0.16899977,0.3668497695,-0.1573788168,0.3783624322,-0.0736558708,0.799429179,-0.5551144801,0.3800680706,0.194400657,-0.2298187689,0.2615343687,0.8008323681,-0.1596867324,-0.7421259435,0.8880847126,0.2677459834,0.048209265,-0.2847866842,-0.3075031828,0.0162086417,0.8078200817,-0.4051855329,0.0709287846,0.5238467707,0.0433630214,-0.9051658916,-0.573535737,0.5572691014,0.3051276234,-0.5247310667,-0.6531801043,0.191799215,-0.6419921343,0.939941985,0.1011427058,-0.7752048858,-0.2636077163,0.631014849,-0.9843426885,1.5190494483,-0.4304976009,0.819048623,-0.9843362678,0.5729170631,0.0305639328,0.7384623816,0.5702589706,-0.3477535891,-0.3880272872,-0.5972629579,0.6769760575,0.8885489417,-0.596685316,-0.5421355286,-0.3279400269,0.1815992807,-0.7017128961,0.9225377713,-0.8704815385,0.12689972,-1.0201011466,-0.583847973,0.2201017615,0.7711600832,-0.2983255456,0.446832306,0.2369739877,0.9219922541,0.5513682002,0.7988052692,-0.055984717,-0.3355356621,0.5650619726,-0.1319955687,0.854096194,-0.6834024048,0.403803578,0.527945305,0.4599055036,-0.3541531621,-0.0712614247,-0.913228482,0.4620452395,-0.4216853859,-0.2693345353,0.9102010751,0.0779588099,0.2063961234,-0.8193034283,0.862408239,0.3987550406,-0.0760941919,0.4415208529,-0.2800944684,-0.0338580826,-0.9425163684,-0.5777097566,0.1632924802,0.5592975631,0.8000412425,0.7407633942,0.7521095906,0.4976428811,0.9160562926,0.9074342624,-0.4286686916,0.4779980984,0.4418224736,0.3229082923,-0.077690372,0.0582811937,-0.5008085304,-0.2607012221,0.8832322605,-0.4714459189,-0.8063520993,-0.0579259145,0.1388289484,-0.0036711727,0.2082439753,0.273857416,-0.6908719641,-0.1701745017,0.1002819425,-0.2477475758,0.5525757126,0.5844010485,0.8510202398,-0.0180748325,0.9541896793,-0.4286315498,0.0357732118,-0.0637301979,1.0895661608,0.7739725805,-0.4217983772,-0.6568040415,0.3155977515,0.7263767189,-0.5478933362,0.0098233776,-0.4099693336,-0.0783770366,-0.0773612026,0.8180737972,-0.8262201054,0.6552772274,0.0300578615,-0.1261661558,-0.240443641,-0.5413421704,0.8520306932,-0.9364106161,-0.8455317244,-0.1357424181,0.038723196,0.054031002,-0.9920475297,0.8521819431,0.9020971722,-0.3710127601,0.3496312554,-0.6177328919,0.7899867755,0.4335348987,-0.1198521638,0.5874258974,0.9537041727,-0.0476382349,0.0537336022,-0.2000470772,-0.1779983756,-0.1269882829,0.0528669193,0.0311567383,-0.2663417879,0.4278648919,0.8570912297,0.4968100488,0.3719508682,0.6547964573,0.7551739256,0.8343382053,-0.5116995906,-0.6461879872,0.5244152679,1.0417032541,-0.4011024306,-0.4063809694,0.76254379,-0.8615018098,-0.4584084049,-0.9310151597,-0.7249047967,-0.9294733852,0.6168483,-0.1768776985,-0.8359230263,-0.3881442413,0.5375886334,-0.8461672211,-0.4813057989,0.6178097406,-0.7158707397,0.9506734739,-0.3903424028,0.3194116048,-0.4074602349,0.9402035414,0.8594055642,-0.3800763687,0.5174607653,0.1567416785,0.8448444456,0.2550616039,0.4001816623,-0.1907694133,-0.7195810606,-0.6812382591,0.4807975405,0.2818986986,0.6600096147,0.0292999722,-0.7159126305,0.4614269672,-0.0895270687,-0.6644135464,-0.4359410215,0.0829439674,0.7359490778,0.7162801514,0.4673936214,-0.9317371145,0.8559759197,-0.7983742299,-0.8418642483,0.8804858546,0.5143112565,-0.8967250146,-0.372376034,-0.0902934894,0.6186829463,0.056756263,0.0778916851,0.2163936678,-0.7878340544,-0.8878488315,0.7986696279,-0.307384066,0.8416121664,-0.7953173261,-0.7372821786,0.4327127525,-0.5882621151,-0.0569433786,0.1904923909,0.5896610634,0.6090491805,0.2753031762,-0.43160296,-0.732106286,0.4380687365,-0.9367260585,-0.6965771159,0.2171618924,0.1903987466,-0.3925215063,0.0040892844,0.7479847683,-0.5363880982,-0.8259997802,-0.3016439565,0.7073011518,0.4249564939,0.8278036815,-0.8354779972,0.4699112088,-0.0940116132,-0.9183709341,-0.586618809,-0.6138212293,-0.5150989531,-0.5952507366,-0.199554908,0.1134316923,-0.5572466128,0.0976229862,-0.0091001176,-0.1547056749,-0.464629885,-0.3786867856,0.1907753727,-0.5942243501,0.6822661882,0.6901395536,-0.5283967664,-0.2750238267,-0.8928572087,-0.193422725,0.1580810916,-0.5644622812,-0.7677766064,-0.6319075454,-0.003786411,-0.5831026197,-1.0890141298,0.2070407797,0.597989177,0.6121756254,0.938208593,-0.8063732081,-0.0873696791,-0.9382316418,0.6993359013,0.8619367254,0.2701799052,0.5917531724,-0.6382274887,-0.6888706545,-0.9268167191,-0.7879855452,0.3661778374,0.1991545084,-0.4005851632,-0.7198558611,0.205387257,0.2916767505,0.1724157541,0.6860364723,-0.9928127432,0.1806846825,0.368190282,-0.5782857163,0.8646351213,-0.4317843489,-0.0806140581,-0.762965906,0.4934944524,-0.1526978543,0.3655656312,0.3154117967,0.7514342151,-0.1509046023,-0.454161919,-0.7613307632,0.5368990754,0.5821661248,0.2754379133,-0.376933044,0.3515865793,-0.819703053,-0.2760232279,0.2530907173,1.0054189468,0.0646864743,-0.7993422143,0.8609156119,-0.6986832246,-0.5851852424,-0.1804231984,-0.2901034174,-0.9785120076,0.5779471522,-0.2855205414,0.6247946341,0.5165414938,-0.5353600965,0.8122669921,0.5586124098,0.9697807649,0.4847048181,0.5422883943,0.4987805287,-0.1702140031,0.287647036,-0.1846070971,-0.2528126609,0.247862641,-0.009199406,0.7234436015,0.4066224714,-0.7052518669,0.3807902663,-0.6103681432,0.772072166,-0.9252227696,-0.3291533348,-0.1308599142,0.0844513831,-0.3871586572,-0.9642882594,-0.6126011078,-0.2182021321,0.7921403393,0.6025707613,0.4029979605,-0.4919203324,1.1485887873,0.290600206,-0.237440553,0.4479192231,-1.0815419834,0.9917138163,0.149693568,-0.607166782,0.0269203279,0.5837707603,-0.2930999043,0.4427135031,-0.115139954,1.3230080152,0.3735413854,-0.388189394,-0.4765267566,-0.8377888023,1.0129338695,0.3152278114,0.9607640541,-0.6875557939,0.082462944,0.2192200589,-0.387471638,-0.6092678682,0.1860121994,0.4222947541,0.2706779918,-0.1639442423,-0.2811043504,-1.3506798308,-0.2440638552,-1.0074108147,-0.5838961674,-0.2891432168,0.7359202471,-0.7847898201,0.0723920408,0.3363916217,-1.0024850356,-1.1863680008,0.7125234067,0.5098213787,1.050457984,-0.1017294446,0.432791289,-0.1552380247,0.3556303105,-0.1104933699,0.1178943559,0.274173853,-0.0785772943,-0.5394148961,1.1851457822,0.6717512396,0.114534136,-0.3829886095,0.0906975925,-0.3972415247,-0.4146785118,0.8142184387,1.0202863882,0.8024905469,-0.4015688546,0.0689899796,0.2079265862,-0.8578436076,1.107612867,-1.2631500572,1.3115033741,1.3261889677,-0.7666619763,-0.9774756712,-0.4400589331,-0.8077692306,1.2716026104,0.0396980985,-1.474790188,-0.7248445183,0.0775332984,-0.4968164767,0.8019284708,-0.6789571291,-0.3011047307,1.2631757368,0.8586839349,0.2643733499,-0.113304766,-0.2671369132,0.3338058909,0.9818172872,-0.9332320572,-0.6650735565,-0.3648241889,0.6095112231,0.5075280692,0.7515948989,-0.4559273936,-1.0129687063,-0.0862430076,-1.0202894757,0.9657672472,-1.1698793171,0.3377104003,-0.7587868825,-1.503526359,0.1683474302,0.0071925784,0.0616034844,-1.1422016373,-0.6069287838,-0.5465839797,-0.1817917528,-1.058066666,1.4683260553,0.4749009699,1.0578765231,0.0670509985,-1.4563194811,-1.0814937089,-0.5973344978,-0.0752636367,-0.4047566082,0.5971010324,-0.0542255328,-0.1344484152,-0.8262270595,-0.6968883815,0.0734134733,-0.3060850673,0.3685567191,0.6037989286,-0.0366549092,-0.1495841811,0.9193111735,0.2993821631,-0.0698577404,0.7079381382,-0.2318402624,-0.3611849005,0.3769533766,0.3179642607,-0.1294299954,-0.3693666856,-0.4668462209,-0.772379898,-0.2191228918,0.5451689662,-0.1163353226,-0.6642556294,-0.3489561921,0.5890240169,-0.6370756955,0.8721324571,-0.3465732908,1.0329114422,0.0351833419,-0.014659527,0.966286176,-0.7811154501,0.5519110721,-0.1080973253,-0.4984744747,0.9219054372,-0.0217310671,-0.6011373141,-0.5901144088,-0.6274080924,-0.4158265856,-0.8876422303,-0.5491167047,0.2960164537,-0.1651486014,0.0257195108,-0.2567414389,-0.2005813287,-0.282946289,-0.6107186531,0.9152021428,-0.6340679194,0.6234010082,-0.0146765753,-0.0494483005,0.3543798307,-0.9127817053,0.3997112424,0.5176400591,0.2184317607,-0.3167218242,-0.3246154999,-0.1188895791,1.0717220964,-0.7738176693,-0.0639829491,-0.2590016615,0.6997107882,-0.414414823,-0.338184736,-0.451104698,0.1901430719,-0.1239155297,-0.1917555529,0.2625530338,-0.2146875211,0.4621575061,-0.7725598584,-0.6728860733,-0.7553593756,0.2819109656,-0.1859020661,-0.2659016729,0.8824443969,0.5498629761,0.7056611102,0.364161643,-0.5845002679,-0.304663389,-0.8289446921,-0.1243683861,-0.2931528382,-0.174394845,0.9352739993,0.8801313485,0.0965448851,0.7713364574,-0.6523026103,0.1106826445,0.6087031949,-0.3997108061,-1.3580385256,0.3340798637,0.6647516954,-0.8858820073,-0.2633056454,0.8924021683,1.0063018741,0.5355012951,-0.9035695737,0.5154047507,0.3304063856,-0.8128413235,0.5543512622,-0.3130407354,-0.1083289944,-0.1449074518,0.0770321568,0.9267163796,-0.3258958529,-0.9508609684,-0.5860941304,0.6250683302,-0.6086255561,0.2521536607,0.3288984312,0.8160434009,1.0247384634,-0.0007754336,0.2680158676,0.8998367113,-0.058971651,-0.1303487845,0.7793541395,-0.7886220358,0.6173237597,0.3815476043,-0.6781037288,-0.3541208074,-0.8731339636,-0.3052017455,-0.6494458007,-0.6372750937,-0.576013772,0.6086088383,-0.6985923387,-0.9204081093,-0.6802121008,-0.4098368027,0.606752604,0.3031081498,0.3605011501,0.0329927136,-0.4771532596,0.3605524061,0.8087336359,0.9651172519,-0.9274367531,0.4247543345,0.0799203213,0.7748977482,0.3348140419,-0.0735747869,-0.0537846678,-0.2137637529,0.362543118,0.1199220277,0.091353475,-0.5466427744,0.5461594619,-0.9215685864,-0.6395835114,0.277420884,-0.737012697,-0.3618862988,0.3146879789,0.6966143313,-0.4381625033,-0.4976427795,-0.5397955405,-0.6882509551,-0.9215803883,-0.509074685,0.2173052312,0.0932761964,-0.9466268995,-0.480398026,-0.7388757919,0.7821835499,-0.4802709291,0.2903375959,-0.9577942849,0.666176243,-1.0411856811,0.8338665324,-0.482002531,-0.4717315048,0.3741112582,0.3297993358,0.3396503652,-0.2382685203,-0.0210170015,0.3614128338,0.0022923366,0.0521210581,-0.8938903067,0.7473572673,-0.751012223,-0.0767691641,0.5316701923,-0.5788095353,-0.590141557,0.14351722,0.0164595814,-0.6302852561,-0.8522007844,-0.8147426137,0.2865919431,-0.6095349009,-0.4079314373,0.3779832804,-0.9162964715,-0.3326447153,-0.039829299,0.017239942,-0.0583934107,0.560029098,-0.2364663417,-0.0878668681,0.7619240067,0.0464038262,-0.6229147733,-0.129371357,-0.0968343872,-0.1076668886,0.9743063741,-0.257973222,0.2401215211,0.557843375,-0.3920411077,0.9164112152,-0.5113280505,-0.8800044822,-0.4397038465,0.9283851732,-0.7774121096,-0.7837733762,0.3007402124,-0.7420914482,0.2329286883,-0.1055298075,0.4569416729,-0.9871588512,-0.6729469914,0.8881430946,0.0152995915,0.5131477985,0.5308800259,-0.4974622761,0.9085439137,-0.8261053823,-0.577954121,0.2801169147,0.2823648716,-0.605826278,0.1930612732,0.4708787834,0.0985633951,0.8831245754,0.4625680301,0.7937632771,-0.9816962846,0.0648029741,0.1434361153,0.4493358056,-0.7889309756,0.7542170815,-0.7472209857,0.6533635744,-0.3353873241,-0.1163291942,-0.2167218225,0.0129374958,0.0171517844,0.3433785774,-0.9132021522,-0.0035065232,0.1121213911,0.3804264532,-0.5692790974,0.282490647,0.4339872043,0.6424895752,0.439120044,0.7636628316,-0.5819743703,0.268368005,0.5837755593,-0.051538468,-0.7081810573,-0.3232469021,0.4482715351,-0.2941055347,0.7801122052,0.5331534819,-0.5778584816,-1.1787573731,0.8266828566,-0.4314220598,0.4297922245,0.034864315,-0.2043276448,-0.9293438531,-0.7659439322,-0.207262818,0.0869196736,0.2875007612,0.4887645347,-1.1113366579,-0.707433951,0.4299891394,1.023326657,0.7417318347,1.1819582531,-0.7633547544,0.811398014,0.7896629996,-0.4860166128,0.2293407322,0.5673604127,0.0404069213,-0.1351602505,-0.3947967683,-0.2581748358,-0.7119912071,0.160204897,-0.2907187516,-0.339271483,-0.6624911546,0.6317634122,-1.0357678746,-0.5044570349,-1.0256652861,0.6951473404,-0.2323593103,0.7740956246,0.0053087312,-0.5084708022,0.9816093837,0.1392171414,-0.5056363657,-0.3146579744,-0.4712976443,0.275920359,0.7125827901,0.7163882068,0.0210864812,-0.0538052888,-0.8122789757,0.9892750685,-1.1018961716,-0.4272992732,0.8069367536,-0.4645608021,0.6876564825,-0.729102055,0.1645062193,0.5894641194,-0.1617704358,0.328856404,-0.1318462102,0.5984621172,-0.3630215427,-0.2025704342,-0.3292879419,-0.3030180356,-0.0053244508,0.3010870071,0.3832239702,1.0046249333,-0.3900564091,0.1355033553,0.6013879863,-0.0582208422,0.5913693147,-0.1827599369,0.1388153572,-0.2374259524,0.1450786698,-0.3776816162,-0.2412993847,0.3825297563,0.9351499287,0.4345954175,0.6614819869,-0.6244631074,0.2449436384,0.9288451294,0.5865853159,-0.7060833714,0.7568885583,0.3738185633,-0.844414802,0.9582002244,-0.6879006981,0.0052577151,0.2022062167,0.4056797266,0.349435215,0.3370928461,-0.4876271223,-0.2820200313,0.3177335076,-0.3074730095,-0.6114841204,0.079428872,-0.7493848581,-0.9445148511,0.4460193005,-0.5296194284,0.5564754747,0.8068034045,-0.8779104446,-0.9548003781,0.5704473614,-0.4560414917,-0.9005553227,0.2347803171,-0.4644543853,-0.6670899962,0.6396210051,0.6438715416,0.3453557964,0.7659251095,-0.4665227734,0.8131180164,0.6139161637,-0.352785876,-0.4414218997,-0.0650582142,0.5031609391,-0.728241098,0.1833109996,-0.4786309349,0.1910069259,-0.7978120232,-0.7261836993,-1.0094677271,0.8119614035,0.3044370618,0.0616006142,-0.9459564122,-0.6238678109,-0.4290189453,-0.8943057373,-0.2947457258,0.1615627353,0.6934616174,0.1359079809,0.9068178104,-0.8563198298,0.3351906257,-0.0718791876,-0.2278224833,-0.2239652971,0.5754898458,0.75770981,-0.8398583158,-0.8557894721,-0.3181467631,-0.8327317315,-0.3741529856,-0.4285401705,-0.7139669395,0.2356576659,-0.437525108,-0.9398480757,-0.4957436041,-0.7593154929,-0.1744957105,0.0275958388,0.985485013,0.5080726145,-0.8402091348,0.4112615224,0.5735908149,0.7018569808,-0.4813648352,-0.1945374682,0.9027841237,0.9542685732,-0.2183719103,-0.848102404,-0.0884360234,-0.4611156517,0.4263196522,-0.7792398934,0.2825613351,-0.8902050497,1.0358272755,-0.2543576426,0.2055089063,0.2300862411,-0.4878558295,-0.0910322178,-0.4551165845,0.3122117628,-0.607791866,0.1766026791,0.1274361879,-1.108300474,-0.906821507,-0.2487431592,0.0403525652,-0.7741599605,0.8941067222,-0.465257388,-0.1514248265,-0.6117078103,-0.8607517774,-0.2549586865,-0.9073596116,-0.3634404619,-0.5716645905,0.1847835933,0.6946423827,-0.762104589,0.7662882969,-0.0606600103,0.0798899436,-0.0923931889,-0.1234878848,-0.2684701722,0.2691351419,0.0240606984,-0.2977416077,0.5006023556,0.8983869803,0.2749066076,0.3831697544,0.3745207151,0.7207242064,-0.4957959467,0.1269393305,-0.6304493935,1.3676669823,-0.8924497601,-0.3153869775,0.6940551968,-0.4551566287,-0.6593232244,-0.1088846187,-0.2456521674,0.252993096,0.9487950817,0.6688392351,0.9674531084,-0.1594053345,0.1760507309,0.2318374348,0.8119980571,-0.2232953892,-0.6066442311,-0.0293084125,0.2358198108,-0.3369318263,-0.0678021971,-0.2344122302,0.1188814331,0.6024888944,-0.3696336055,0.6883470855,-0.9296364142,0.1092746565,-0.5519611887,-0.1705874894,0.2854595493,-0.2001720292,0.7482071091,-0.113212123,0.56790605,0.3863358128,0.0175568978,0.942845347,-0.1574757506,0.4030438488,-0.7977421426,0.6473211523,-0.6628653258,-0.1107508278,0.5941221411,0.6203324507,0.7782932642,-0.9662506618,0.1120139599,-0.5585697861,-0.5076902503,0.3957755508,0.3846573139,-0.7442365683,0.4688372584,0.2681661549,-0.8315744619,0.3568242825,1.033778146,0.8316451436,-0.7741487588,0.2987627999,0.5679804189,0.6372655858,-0.2435807002,-0.1007486286,0.1565622981,-0.3154534655,0.4386344319,0.9870311922,0.3771945257,0.0986037526,0.6026599273,0.5139286955,0.5627816149,0.6576706684,0.5989527502,0.0611125447,-0.7960488768,0.4814756905,-1.155636454,-0.6986577659,0.9761213654,0.0005137903,0.7782592727,-0.6547564551,0.6834424574,0.7453143393,0.8835834288,-0.3893159026,0.351686277,-0.7475917242,0.6757128651,0.0242592575,0.4790591044,0.2322604091,-0.7552941474,-0.6907817545,-0.3987338366,-0.9978828972,-0.2724409119,0.0623817661,0.9251793592,-0.8110720652,-0.9765808078,-0.4124982401,-0.6306978866,-0.2087356733,-0.7712578913,0.8805542978,-0.4048170501,-0.4498760397,-0.7912066358,0.680583066,-0.5327217696,-0.8787495321,0.2463451552,-1.0106220816,0.5544883782,-0.7037303176,0.2001969408,-0.7248227941,-0.8956509501,0.9147065684,-0.850577777,0.3734449484,-0.4615699737,-0.2426767489,-0.1646692847,-0.7042974097,-0.5386183175,-0.8806279014,-0.0897864035,0.7855079385,0.6800499623,-0.5711704873,0.0092242675,-0.2625211818,0.370216929,-0.6812681195,0.3737313754,0.6267718057,-0.5805119949,-0.1286933693,-0.5254582231,0.3613155373,0.1942481079,-0.69897132,0.1439096424,-0.9192422601,-0.1083790208,0.2334613224,0.308816469,0.8299304233,-0.2713188994,0.3639788806,0.3513128169,-0.5205941069,-0.56471589,0.649856874,-0.7796607629,0.1677496047,-0.2118049194,0.5221050951,0.5153576035,-0.9378154953,0.5475441053,-0.3891450107,-0.8155786108,-0.0432311392,0.3488962859,-0.8813785651,0.1156234894,-0.2263916506,-0.8470181335,-0.6449005713,0.6951228282,-0.1815076349,-0.6510086766,0.5550901257,0.7279102013,-0.9468815459,-0.41378998,0.3415144817,0.2115236849,0.6817589542,0.5729793274,1.0419717654,-0.7905100846,-0.2418414913,0.5590818415,1.0109848531,0.9440970842,0.2717601715,-0.3393471196,0.5411634287,-0.8325453033,-0.100701391,0.8784263816,-0.6088114063,-0.3287155845,-0.6275006856,-0.8240222718,0.8035278806,-0.2452242499,0.1978162367,0.3881056348,-0.5626738284,-0.6058644293,0.3865377586,0.4226354283,-0.2517908002,-0.3032147713,-0.8575330619,0.8465763314,0.3883056391,0.756306464,0.1154404826,0.3467652372,0.1087539271,0.6821281271,0.8694660715,-0.5974403655,0.8493385196,0.8718676228,0.2709458315,-1.3389926611,-0.1176890867,-0.2507813327,-0.3214782987,0.6602039472,-0.8006768731,-0.6513740257,1.0532082393,0.3932243858,0.7964154376,-0.1009744971,0.3548599492,-0.0278238183,0.2723635019,-0.487982104,0.3699481367,-0.1526316712,0.4924131269,-0.7272411456,-0.0051813866,0.3259218883,-0.5365760898,0.6469083883,-1.1378629023,-0.2655999643,0.8955977306,0.9957448515,-0.4754059277,-1.3175403417,0.8165927104,-0.076215453,-0.2581443466,0.0208383127,-0.2403103586,-0.7954070327,-0.1156552769,-0.0406465168,0.4943545018,1.1162294396,0.8163393834,-0.7286288296,-0.6392739102,-1.3134690082,-0.5809455219,0.1271899893,0.0590904762,0.4311980202,-0.0683636063,-0.3745396462,-1.3020163598,0.7607177201,-0.1307386169,-0.9661900428,0.2054260672,-1.0551635888,-1.0171254545,0.7300665188,0.2275867426,0.3776099704,0.2405905127,-0.4968156477,-0.6436631875,-0.3836014112,-0.0276306359,-0.1758723276,-0.0379240297,0.2162539829,-0.5406801898,0.4618506773,-1.2246924742,-0.0373592896,-0.6692157993,0.272514255,0.3683914831,-0.1582540951,-0.8529610264,-0.2093755341,0.3859401892,1.3261998836,0.2747406451,0.2355881106,-0.6591717063,1.1535451959,0.4753260799,0.0568511348,0.6137695757,-0.3393693365,0.4060511242,-0.4654723383,-0.0853451638,-0.7285102445,0.515509464,-0.5002802761,-0.2796604432,0.4564958128,-0.490081124,-0.9103327228,0.9537540921,-0.5205971969,0.0054375888,0.2286743455,-0.4491121253,1.3142906764,0.1568945545,-0.2811936395,-0.4482291045,-1.2180227369,-0.1552729118,-0.890487675,1.2260644642,0.8305147087,-0.0693803833,-0.6858958713,-0.1455449994,-0.1835114776,-1.2191737574,-0.8510573878,0.0291286085,0.3540348507,0.0080980283,-0.6711726717,-0.2398876055,-0.2554082378,0.7859651251,-0.4050879666,1.2164346917,0.8496607869,-0.4296470737,0.8056850922,-0.7135087004,0.8421848324,0.9638917665,0.5252075211,0.8284283509,0.5731301663,-0.4121861657,-0.2257651579,-0.5915399712,-0.1620881498,0.2927359807,0.6701580523,0.1734024637,0.5927842028,0.8854701523,-0.1721009485,0.4015447669,-0.2403489888,0.3934484315,0.3332327221,-0.5626839228,-1.0708469666,-0.3909119911,0.201853933,0.4090949314,1.0470502309,0.9423129406,0.3161069182,-0.1957978176,0.2053178769,0.2352515406,0.9015710663,-0.7754632778,-0.2593246389,0.5447371082,0.7846720062,-0.0739537274,-0.3893408354,0.2418633191,-0.1390745149,0.5345261808,-0.4955894683,0.4943136268,-0.8584878856,-0.3936187728,0.0836335465,0.273953545,0.4901167737,-0.8806410033,0.7347977151,1.0711214889,0.6819481157,-1.0880091524,0.7804359753,0.2783471889,-0.2041780138,1.0372347608,1.0710941427,0.2337086221,-0.6754104229,0.0796879831,-0.5547324251,-0.501173834,0.4193038212,1.1053450497,-0.2127070032,0.6358441621,-0.8955423426,0.2068144983,-0.70646454,0.096498367,-0.5490456635,0.9688626889,-0.2182469206,0.6504880083,0.4522860383,0.2367346298,0.3248937489,-0.7896706417,0.0519629679,-0.3171611974,0.2125225197,1.1410049706,-0.2221879341,0.3478598677,-0.0228410485,1.1646030246,0.574720999,0.8041434735,-0.6302053815,0.6716487687,-0.6723624553,0.291066656,0.4588543728,-0.6162182342,-0.1258511888,0.2067444928,0.4540704317,0.1341550488,0.5682667975,-0.1503154313,0.4607262107,0.8375443588,0.6877400254,0.6067529282,-0.2264705409,-0.1456790473,-0.0324385403,-0.2670992398,-0.6881513927,0.6594585924,-1.0771559802,0.8611116088,0.6575402217,-0.9885767071,0.7559257879,-0.8604158092,-0.4501828366,-1.0605688755,0.4619428254,-0.8722289841,-1.0564539677,0.391747433,0.8419443015,0.1241706532,0.9116047029,0.6707004745,-0.1024535476,-0.3952317159,-0.3174648033,-0.0151935712,-1.3306937458,0.6343813863,-0.6300432691,0.0093863293,1.1871965158,0.098487787,-1.3226195194,0.2614956826,-1.3189254072,-0.7542972031,0.225836387,-0.4599931561,0.4020621506,-0.9093217502,1.2066518837,-0.3258765263,-0.008457667,0.5711087737,-1.1424249171,-0.0699025837,-1.2188558872,0.6470602699,0.4976825476,-1.127367011,-0.7154915609,1.0013634033,0.2700436171,-0.6846078101,1.2995361765,-0.2377756449,-0.1196854252,-0.3439827102,0.726660658,0.3904719812,-0.884630448,0.2383469091,-0.5738810511,0.296595466,0.7515313661,-0.4648219417,0.1200003939,-0.4693427067,0.0907921578,0.6265747343,-0.2914469139,-0.6646289506,-0.020595574,0.5288511964,-0.1311141999,-0.0325654464,-0.4298575323,-0.3491110089,-0.0884073625,-0.6196161219,-0.6473731443,0.4740063198,-0.6065061846,-0.1136048417,0.4069398439,-0.3392545824,0.4085179999,-0.8556975405,-1.1486376841,-0.445371547,1.2779276781,0.806560975,-0.9020824461,-0.2354153596,0.476957213,0.6159660951,-0.07897881,-1.1247830373,0.09395728,1.1736574834,0.1360463122,1.0149200707,-0.6715411812,-0.7688589326,0.5911934101,-0.3109257607,-0.1970764615,-0.0387864872,0.1224506895,0.2834912242,0.3721927554,0.1140881411,-1.0650791805,-0.7193669207,0.2028749693,0.5106118567,0.5030241264,-0.1603491668,-0.430492235,-0.4849338546,0.2055152775,-0.9910058474,0.1339718674,-0.5504138457,-0.5648231195,-0.4396007701,-0.4865438149,-0.099651947,0.3174431388,-0.625785716,0.8835803473,0.9127784028,0.7565068376,-1.2792286299,-0.922662635,-0.0223393827,0.4806471292,1.0657815889,-0.1918231502,-0.3106812677,1.2961992329,-1.1521316538,0.281362505,-0.701313086,0.4701869069,0.8484926691,0.0895338428,0.1953290741,0.4660533206,-0.5590390627,-0.3784658813,-0.8678134682,-0.7093529262,0.3295536508,0.278659837,-1.2475973471,-0.0761359689,-0.3165700949,1.1589006923,-0.3001235294,-0.1087128482,0.1048614365,0.0972170605,0.5280995215,-0.8707726687,0.5169494191,0.4431472158,0.6168449126,-0.9480440099,-0.1033079501,-0.4765386647,0.8480194292,0.9933203556,-0.6583183202,-0.1971542308,-1.279308359,-0.4597979254,-0.0656381181,0.5299370917,-0.8136818828,-0.5324478881,0.8795519747,0.2468722784,-0.0518654517,-0.5527944588,-0.9679748101,0.9836744856,0.7330633097,1.1914424185,0.1455369119,0.514307162,0.1998309444,0.6503461767,0.1968485489,-1.3350346808,-0.233850363,-0.4790015865,0.0475190638,-0.9614110047,-0.6115906346,-0.8002838016,0.3074049129,-0.3469687266,0.2201058725,1.0053441917,0.1353325097,-0.5546810759,1.1427547173,-0.5120578625,-0.7116964728,-0.5548826142,0.6368027341,0.4236327469,0.2227536165,-0.614936948,0.5652976304,-1.2278063008,-0.1350749264,1.0719235886,0.60108888,-0.0963931451,-1.0702426579,0.8607530796,-0.7080801421,0.7340555,0.3855780589,-1.0691440464,-0.6509921952,-0.1577048903,0.5267174656,1.298336152,-0.2486797914,-0.8120259594,-0.1326798345,-0.439512456,0.3904493262,0.1613211434,0.5537756806,-0.9651872431,-0.8338666373,0.1716845681,0.3949407338,-0.9192913022,-1.3026395623,1.1309758554,0.404513207,-0.6837339604,0.9086279764,-0.3673490291,1.0833178113,0.1684648448,-0.3853413471,0.4871801087,0.2006907375,1.2898005153,-0.2218092249,-0.1004894223,0.4315044792,0.149808979,-0.4136686685,-0.3325711703,-0.0718149563,-1.0493027515,-1.316568646,0.5939169856,1.3907523324,1.187047222,0.9370748066,1.1206485522,1.1989841404,-1.3786405881,-0.3889013577,0.1314532005,-0.8712031458,0.1993793485,-0.156342232,0.979188327,0.6305498168,-1.0809195579,-0.4959330923,-0.5949013067,-0.3762679538,0.703608947,-0.5321277248,0.5591000907,0.2830575594,-0.1208304175,0.8756489235,0.7285771786,0.8102478145,0.936113005,-0.2681207449,-0.7531932594,0.116177321,-0.8362736823,-0.2709193336,0.8441755376,-0.1143043292,-0.8326552585,0.5646170235,0.7436305216,-0.9091508665,0.4609019526,0.1104292778,-1.0099627672,0.4454850106,0.3316758912,0.8016837582,-0.750334016,0.2484149072,0.3813816295,-0.0722068691,-0.7935984615,0.0537334237,0.2559885685,0.7563866075,-0.2196317241,0.2525129974,0.8278182245,-0.337360207,0.4850631781,0.415730948,0.5376038063,-0.7093374363,-0.8243325977,0.0040226956,-0.1435556112,0.765745467,-0.627023778,0.6012342341,-0.1460244749,-0.5061985961,0.567528929,-0.9430404529,0.2448646165,-0.2311081493,-0.5023844715,0.0446248098,-0.7662689138,-0.4832144949,1.0235504948,0.8810186464,-0.6915730601,0.3288155928,1.0678845901,-0.1135114064,0.7394588889,0.4984640972,1.0368526297,0.153274227,-0.4151069299,-0.9240462919,0.4826492412,-0.1461096697,-0.3004730116
